design_id,design_group,method,order,taps,ap_target_db,stop_weight,weight_scale,ap_db,ast_db,coeff_csv
baseline_taps100__firpm__w1.439__ap0.010,baseline_taps100,firpm,99,100,0.01,1.43911552416211,0.25,0.469939641199541,34.5197867308903,"0.0112224280076640651,0.00333150384216167848,0.00195087575416541537,-0.000338223375941620191,-0.00267475762271278047,-0.00406635678490667972,-0.00383105376157375117,-0.00195332369975969103,0.000837880503323071638,0.00333681458263363449,0.00436003704420957067,0.00326447558116564965,0.000316518623678018959,-0.00327244770223320686,-0.00594678608146309226,-0.00633246228670548625,-0.00400409358260156792,0.000266295283458003323,0.0047143890984861752,0.00730062479506006501,0.00662254497098917726,0.00262663930134349188,-0.00321441471185046884,-0.00839990847943809446,-0.0104499540858572354,-0.00805263817356483003,-0.00177544729162668578,0.00593692290381945317,0.0116926668818253497,0.0125717597606773059,0.00753495182132973666,-0.00187049180521274908,-0.0118762464348739546,-0.0179076094584292855,-0.0165553394447705386,-0.00729461678201844162,0.00685355191493621993,0.0201195851875272218,0.0261104179846838452,0.0205525477267073653,0.00354727191109510242,-0.0196101926118420825,-0.0396020428177012163,-0.045994465543975141,-0.0309846348078505231,0.0073589730136600839,0.0636140357265973927,0.12595595514869018,0.17937007799022775,0.210148536847247325,0.210148536847247325,0.17937007799022775,0.12595595514869018,0.0636140357265973927,0.0073589730136600839,-0.0309846348078505231,-0.045994465543975141,-0.0396020428177012163,-0.0196101926118420825,0.00354727191109510242,0.0205525477267073653,0.0261104179846838452,0.0201195851875272218,0.00685355191493621993,-0.00729461678201844162,-0.0165553394447705386,-0.0179076094584292855,-0.0118762464348739546,-0.00187049180521274908,0.00753495182132973666,0.0125717597606773059,0.0116926668818253497,0.00593692290381945317,-0.00177544729162668578,-0.00805263817356483003,-0.0104499540858572354,-0.00839990847943809446,-0.00321441471185046884,0.00262663930134349188,0.00662254497098917726,0.00730062479506006501,0.0047143890984861752,0.000266295283458003323,-0.00400409358260156792,-0.00633246228670548625,-0.00594678608146309226,-0.00327244770223320686,0.000316518623678018959,0.00326447558116564965,0.00436003704420957067,0.00333681458263363449,0.000837880503323071638,-0.00195332369975969103,-0.00383105376157375117,-0.00406635678490667972,-0.00267475762271278047,-0.000338223375941620191,0.00195087575416541537,0.00333150384216167848,0.0112224280076640651"
baseline_taps100__firpm__w2.878__ap0.010,baseline_taps100,firpm,99,100,0.01,2.87823104832422,0.5,0.70299287124934,37.0476766837501,"0.00717072556663081537,-0.000358360445188608476,-0.00222011002654241146,-0.00458748708695336151,-0.00649788814056178991,-0.00704633041744480784,-0.00578013700688601376,-0.00295585270949974901,0.000484149193977568074,0.00324241871222763142,0.00419594614612420549,0.00290545098951875032,-0.000134692813495920424,-0.00362565898217302382,-0.00594979023344169387,-0.00585939915519338109,-0.00314985054794122456,0.00126369854543729662,0.00553815468859899206,0.00771075177002946213,0.00655969727040325509,0.00224826708081186152,-0.00359673582745013987,-0.0084648317496799387,-0.0100086334104090881,-0.0071315766635759387,-0.000624712078301286819,0.00696538161355888391,0.012283601278427831,0.0125983721694400367,0.00711953169100360515,-0.00241568516199557048,-0.0121671478189218866,-0.0176710784318867622,-0.0157461230478238498,-0.00611638043035453872,0.00802891155885841062,0.0209137646634547786,0.0263107547627881438,0.0202018531564913256,0.00292899335338977921,-0.0200933287495375611,-0.0396016871387569191,-0.0453746008843957521,-0.0298805171689668775,0.00860196443715078446,0.0645844861769191425,0.126361295244745153,0.179163803553312628,0.209550721149860786,0.209550721149860786,0.179163803553312628,0.126361295244745153,0.0645844861769191425,0.00860196443715078446,-0.0298805171689668775,-0.0453746008843957521,-0.0396016871387569191,-0.0200933287495375611,0.00292899335338977921,0.0202018531564913256,0.0263107547627881438,0.0209137646634547786,0.00802891155885841062,-0.00611638043035453872,-0.0157461230478238498,-0.0176710784318867622,-0.0121671478189218866,-0.00241568516199557048,0.00711953169100360515,0.0125983721694400367,0.012283601278427831,0.00696538161355888391,-0.000624712078301286819,-0.0071315766635759387,-0.0100086334104090881,-0.0084648317496799387,-0.00359673582745013987,0.00224826708081186152,0.00655969727040325509,0.00771075177002946213,0.00553815468859899206,0.00126369854543729662,-0.00314985054794122456,-0.00585939915519338109,-0.00594979023344169387,-0.00362565898217302382,-0.000134692813495920424,0.00290545098951875032,0.00419594614612420549,0.00324241871222763142,0.000484149193977568074,-0.00295585270949974901,-0.00578013700688601376,-0.00704633041744480784,-0.00649788814056178991,-0.00458748708695336151,-0.00222011002654241146,-0.000358360445188608476,0.00717072556663081537"
baseline_taps100__firpm__w5.756__ap0.010,baseline_taps100,firpm,99,100,0.01,5.75646209664843,1,0.9920314915529,40.000061165892,"0.00363001978298443679,-0.00328709086360453109,-0.00505462657369448905,-0.00710157767891485964,-0.00827790828476426647,-0.007789109308178244,-0.00545455688236872772,-0.00182440805899358868,0.00196349922587341335,0.00458198960880701247,0.00504313577395054842,0.00314874419138570696,-0.000345953093744213319,-0.0039643674729547395,-0.00607989411649613627,-0.00560945524579992312,-0.00253295006871082605,0.00200669447455718679,0.0061007140612545389,0.00784780102835162981,0.00619509794410185669,0.00155789419920322053,-0.00430942368392407075,-0.00886894531018102283,-0.00990585873703169438,-0.00654673162007931349,0.000196938776557067582,0.00766559754866492395,0.0125515081500252833,0.0123064470784398933,0.00637971569648585965,-0.00328212044816342252,-0.0127826265459554164,-0.0177571447955903773,-0.0152555721117699199,-0.00525669223209876413,0.0088855192095378642,0.0213923016578807107,0.0261968137322742337,0.0195362544005434936,0.00200498187807215998,-0.0208790744703342378,-0.0399010955848054447,-0.0450519240746169031,-0.0290717255434345991,0.00954624694272787969,0.0652564757381956656,0.126466813400319678,0.178657158240867198,0.208652917056514953,0.208652917056514953,0.178657158240867198,0.126466813400319678,0.0652564757381956656,0.00954624694272787969,-0.0290717255434345991,-0.0450519240746169031,-0.0399010955848054447,-0.0208790744703342378,0.00200498187807215998,0.0195362544005434936,0.0261968137322742337,0.0213923016578807107,0.0088855192095378642,-0.00525669223209876413,-0.0152555721117699199,-0.0177571447955903773,-0.0127826265459554164,-0.00328212044816342252,0.00637971569648585965,0.0123064470784398933,0.0125515081500252833,0.00766559754866492395,0.000196938776557067582,-0.00654673162007931349,-0.00990585873703169438,-0.00886894531018102283,-0.00430942368392407075,0.00155789419920322053,0.00619509794410185669,0.00784780102835162981,0.0061007140612545389,0.00200669447455718679,-0.00253295006871082605,-0.00560945524579992312,-0.00607989411649613627,-0.0039643674729547395,-0.000345953093744213319,0.00314874419138570696,0.00504313577395054842,0.00458198960880701247,0.00196349922587341335,-0.00182440805899358868,-0.00545455688236872772,-0.007789109308178244,-0.00827790828476426647,-0.00710157767891485964,-0.00505462657369448905,-0.00328709086360453109,0.00363001978298443679"
baseline_taps100__firpm__w11.513__ap0.010,baseline_taps100,firpm,99,100,0.01,11.5129241932969,2,1.31612075065897,43.6459619476187,"2.44257494373984217e-05,-0.00620650152042512369,-0.00720731504134755011,-0.00923481940781454604,-0.00974985617765575588,-0.00826862407732458296,-0.00495145727012002469,-0.000649573121397204216,0.00332149417908238643,0.00563935280727841017,0.00549232770949739397,0.00295341966949248368,-0.000964990408257484014,-0.00464380556095016737,-0.00647251959171719644,-0.00552771125210677235,-0.00201955255663358426,0.00270339121757760077,0.00664448665488669502,0.00797443287939691471,0.0058481519045004652,0.000870910564942864104,-0.00502166131315871008,-0.00928281463507989874,-0.00982500155082332433,-0.00599438086216456945,0.000981331233929879157,0.0083371494005164172,0.0128065642355767347,0.0120204992747390098,0.00566763676331056773,-0.00410976034836614892,-0.0133595018071415682,-0.0178260297628671932,-0.0147734847974470666,-0.00442443174994758444,0.00970293325689114937,0.0218400466872946016,0.0260660140828027943,0.0188806131220696574,0.00109492799814248673,-0.0216442062499436448,-0.0401917574617747381,-0.0447397727453645311,-0.0282893374639323937,0.0104602502502652954,0.0659030626893435806,0.126561748091844756,0.178156556974857799,0.20777232131634743,0.20777232131634743,0.178156556974857799,0.126561748091844756,0.0659030626893435806,0.0104602502502652954,-0.0282893374639323937,-0.0447397727453645311,-0.0401917574617747381,-0.0216442062499436448,0.00109492799814248673,0.0188806131220696574,0.0260660140828027943,0.0218400466872946016,0.00970293325689114937,-0.00442443174994758444,-0.0147734847974470666,-0.0178260297628671932,-0.0133595018071415682,-0.00410976034836614892,0.00566763676331056773,0.0120204992747390098,0.0128065642355767347,0.0083371494005164172,0.000981331233929879157,-0.00599438086216456945,-0.00982500155082332433,-0.00928281463507989874,-0.00502166131315871008,0.000870910564942864104,0.0058481519045004652,0.00797443287939691471,0.00664448665488669502,0.00270339121757760077,-0.00201955255663358426,-0.00552771125210677235,-0.00647251959171719644,-0.00464380556095016737,-0.000964990408257484014,0.00295341966949248368,0.00549232770949739397,0.00563935280727841017,0.00332149417908238643,-0.000649573121397204216,-0.00495145727012002469,-0.00826862407732458296,-0.00974985617765575588,-0.00923481940781454604,-0.00720731504134755011,-0.00620650152042512369,2.44257494373984217e-05"
baseline_taps100__firpm__w23.026__ap0.010,baseline_taps100,firpm,99,100,0.01,23.0258483865937,4,1.69529891900493,47.4407073053639,"-0.00446007492159795904,-0.00600084182856935357,-0.00822715349941447252,-0.00927131976602174786,-0.00843079749207835752,-0.00550907739567321666,-0.000985494170356444833,0.00402132236174043613,0.00807446899747494423,0.00991804832099722408,0.00896932064647399004,0.00560868087510696649,0.00112402720520589361,-0.00271606448726343557,-0.00432916739084619577,-0.00297124538678031173,0.0009010483203198904,0.00573535173822419236,0.00945472072662970585,0.0103002619414797221,0.00761523302938177903,0.00222834200869304186,-0.00376927519963508786,-0.00781543526408205562,-0.0079487592534550882,-0.00372617812905200792,0.00342421781184506016,0.0106261088547872501,0.0146549586449258463,0.013313310773991345,0.00651573550239095255,-0.00341851227365895126,-0.0124809437323632165,-0.0165075971751984449,-0.0129752020622798947,-0.00233048201273950567,0.0117676673811687362,0.0235364867646194915,0.0272129417246979727,0.0195158989067989036,0.00147878702161480594,-0.0211510673625679609,-0.0392786225133909955,-0.0432832542246425894,-0.0264088813528718103,0.0124550161637297426,0.0676492262024187829,0.12780209493672734,0.178851579744244094,0.208118497190064838,0.208118497190064838,0.178851579744244094,0.12780209493672734,0.0676492262024187829,0.0124550161637297426,-0.0264088813528718103,-0.0432832542246425894,-0.0392786225133909955,-0.0211510673625679609,0.00147878702161480594,0.0195158989067989036,0.0272129417246979727,0.0235364867646194915,0.0117676673811687362,-0.00233048201273950567,-0.0129752020622798947,-0.0165075971751984449,-0.0124809437323632165,-0.00341851227365895126,0.00651573550239095255,0.013313310773991345,0.0146549586449258463,0.0106261088547872501,0.00342421781184506016,-0.00372617812905200792,-0.0079487592534550882,-0.00781543526408205562,-0.00376927519963508786,0.00222834200869304186,0.00761523302938177903,0.0103002619414797221,0.00945472072662970585,0.00573535173822419236,0.0009010483203198904,-0.00297124538678031173,-0.00432916739084619577,-0.00271606448726343557,0.00112402720520589361,0.00560868087510696649,0.00896932064647399004,0.00991804832099722408,0.00807446899747494423,0.00402132236174043613,-0.000985494170356444833,-0.00550907739567321666,-0.00843079749207835752,-0.00927131976602174786,-0.00822715349941447252,-0.00600084182856935357,-0.00446007492159795904"
baseline_taps100__firpm__w46.052__ap0.010,baseline_taps100,firpm,99,100,0.01,46.0516967731875,8,2.38244808026841,50.4020312043323,"-0.00267058897125638283,-0.00265520289072088437,-0.00262067628985910694,-0.00119603386838999272,0.00185350314247743463,0.00622090361695522721,0.0110285424899867566,0.014985964511726093,0.0168003671224348228,0.0156350187497427129,0.0114999015403084437,0.00538299317104940986,-0.000982708266297557462,-0.00566073860421829889,-0.00720588100641919062,-0.00523642782497579611,-0.000652875996937017341,0.00462141217671581742,0.00833286459782784164,0.00877644634893223752,0.00552596466302783963,-0.000303647143798841041,-0.00641088959351775699,-0.0101833602807849914,-0.00978358464243681697,-0.00500421925690758881,0.00248722890201964449,0.00967890240021080164,0.0133743505493319498,0.0115500700331670203,0.00435994162064691233,-0.00567989774274500151,-0.0144939470194574739,-0.0180103454021966827,-0.0139172446746546954,-0.00289735655133259527,0.0112350690528657642,0.022691731077166117,0.0258571098962434784,0.0176854296580752114,-0.000569729126731733336,-0.0230539033806783367,-0.040726144932864014,-0.0441576431680313006,-0.0268383077687493234,0.0121503741135209863,0.0670949825694136109,0.126731789688494217,0.177223120488734953,0.206132942048865897,0.206132942048865897,0.177223120488734953,0.126731789688494217,0.0670949825694136109,0.0121503741135209863,-0.0268383077687493234,-0.0441576431680313006,-0.040726144932864014,-0.0230539033806783367,-0.000569729126731733336,0.0176854296580752114,0.0258571098962434784,0.022691731077166117,0.0112350690528657642,-0.00289735655133259527,-0.0139172446746546954,-0.0180103454021966827,-0.0144939470194574739,-0.00567989774274500151,0.00435994162064691233,0.0115500700331670203,0.0133743505493319498,0.00967890240021080164,0.00248722890201964449,-0.00500421925690758881,-0.00978358464243681697,-0.0101833602807849914,-0.00641088959351775699,-0.000303647143798841041,0.00552596466302783963,0.00877644634893223752,0.00833286459782784164,0.00462141217671581742,-0.000652875996937017341,-0.00523642782497579611,-0.00720588100641919062,-0.00566073860421829889,-0.000982708266297557462,0.00538299317104940986,0.0114999015403084437,0.0156350187497427129,0.0168003671224348228,0.014985964511726093,0.0110285424899867566,0.00622090361695522721,0.00185350314247743463,-0.00119603386838999272,-0.00262067628985910694,-0.00265520289072088437,-0.00267058897125638283"
baseline_taps100__firpm__w92.103__ap0.010,baseline_taps100,firpm,99,100,0.01,92.1033935463749,16,3.17658375760273,54.0640777752531,"-0.00123195285220777497,-5.56306709178400367e-05,0.00151653118716897324,0.0044756547230401008,0.00864547013229980191,0.0133437949097524877,0.0174547538582229406,0.0197039382223262935,0.0190692329466778665,0.0152060091496851128,0.00870973181041074379,0.00106293053461809167,-0.00572412716549169573,-0.00975289642980992424,-0.00989891160807072554,-0.00628152997970876734,-0.000315445560010207179,0.0057148806095706807,0.00945177681560601703,0.00935104723182787409,0.00532322035668126355,-0.00114288205140175765,-0.00748126632671639383,-0.0110145361171085556,-0.0100475564242942586,-0.00464473323946703806,0.00324952719041513103,0.0104616700329775367,0.0138089386313087602,0.0114433051276994508,0.00377188645882909008,-0.0064726565503513047,-0.0151269875144898654,-0.0181971975886412729,-0.0135756195065907144,-0.00218409837922630768,0.0119973156179642004,0.0231601732051539971,0.0258223183222141342,0.0171636631148121138,-0.00134574091870467635,-0.0237390824475299037,-0.0410166258536046324,-0.0439253540973039563,-0.0261874035325178715,0.0129302046488614514,0.0676565820577289534,0.126824801507351287,0.17680414736819336,0.205385261261713609,0.205385261261713609,0.17680414736819336,0.126824801507351287,0.0676565820577289534,0.0129302046488614514,-0.0261874035325178715,-0.0439253540973039563,-0.0410166258536046324,-0.0237390824475299037,-0.00134574091870467635,0.0171636631148121138,0.0258223183222141342,0.0231601732051539971,0.0119973156179642004,-0.00218409837922630768,-0.0135756195065907144,-0.0181971975886412729,-0.0151269875144898654,-0.0064726565503513047,0.00377188645882909008,0.0114433051276994508,0.0138089386313087602,0.0104616700329775367,0.00324952719041513103,-0.00464473323946703806,-0.0100475564242942586,-0.0110145361171085556,-0.00748126632671639383,-0.00114288205140175765,0.00532322035668126355,0.00935104723182787409,0.00945177681560601703,0.0057148806095706807,-0.000315445560010207179,-0.00628152997970876734,-0.00989891160807072554,-0.00975289642980992424,-0.00572412716549169573,0.00106293053461809167,0.00870973181041074379,0.0152060091496851128,0.0190692329466778665,0.0197039382223262935,0.0174547538582229406,0.0133437949097524877,0.00864547013229980191,0.0044756547230401008,0.00151653118716897324,-5.56306709178400367e-05,-0.00123195285220777497"
baseline_taps100__firpm__w7.196__ap0.050,baseline_taps100,firpm,99,100,0.05,7.19555854576418,0.25,1.0929060863744,41.0819089295858,"0.00251404746407798366,-0.00421909207918279381,-0.00584147500913612897,-0.00779860742430424445,-0.0087597811633997498,-0.00795614559993930263,-0.00530045531148869327,-0.00144126217059771826,0.00241887018585345507,0.00495079972845693852,0.00521990515309954384,0.0031167462578861431,-0.000519900775751335788,-0.0041662052837844769,-0.00619876280960488663,-0.00558322981008586416,-0.00237158527780656665,0.00222371426416649587,0.00626581223709222167,0.00787800375641384797,0.00608309373608824713,0.00133295140256745742,-0.0045407863674830299,-0.00899335920166660814,-0.00987474755276961103,-0.00635949305012260303,0.000461760492198466307,0.00789318635578493966,0.0126414520964939041,0.0122181273462307304,0.00615251215891089893,-0.00354870011354511267,-0.0129683004325378756,-0.0177784464476989298,-0.0150987398282118931,-0.00498557003150432946,0.00915395002577221867,0.0215389326312563252,0.0261543640559040377,0.0193221405578219013,0.00170275837738364123,-0.0211352371086883581,-0.0400034048041539927,-0.0449554571071371298,-0.0288191410720555485,0.00984246507248214865,0.0654679189504136505,0.126495810601370468,0.178490134742722156,0.208360038504318695,0.208360038504318695,0.178490134742722156,0.126495810601370468,0.0654679189504136505,0.00984246507248214865,-0.0288191410720555485,-0.0449554571071371298,-0.0400034048041539927,-0.0211352371086883581,0.00170275837738364123,0.0193221405578219013,0.0261543640559040377,0.0215389326312563252,0.00915395002577221867,-0.00498557003150432946,-0.0150987398282118931,-0.0177784464476989298,-0.0129683004325378756,-0.00354870011354511267,0.00615251215891089893,0.0122181273462307304,0.0126414520964939041,0.00789318635578493966,0.000461760492198466307,-0.00635949305012260303,-0.00987474755276961103,-0.00899335920166660814,-0.0045407863674830299,0.00133295140256745742,0.00608309373608824713,0.00787800375641384797,0.00626581223709222167,0.00222371426416649587,-0.00237158527780656665,-0.00558322981008586416,-0.00619876280960488663,-0.0041662052837844769,-0.000519900775751335788,0.0031167462578861431,0.00521990515309954384,0.00495079972845693852,0.00241887018585345507,-0.00144126217059771826,-0.00530045531148869327,-0.00795614559993930263,-0.0087597811633997498,-0.00779860742430424445,-0.00584147500913612897,-0.00421909207918279381,0.00251404746407798366"
baseline_taps100__firpm__w14.391__ap0.050,baseline_taps100,firpm,99,100,0.05,14.3911170915284,0.5,1.42030687700306,44.8884210006828,"-0.00137344481978157978,-0.00703645837090080464,-0.00762200002763495886,-0.0100412931856771019,-0.0101634089185513709,-0.00838484534688440156,-0.00476169448042158133,-0.000276078800524491878,0.00372677817496551477,0.00592942203894920427,0.00558049825144030058,0.00283859520119478887,-0.00120642396735718142,-0.00488998846516345773,-0.00661199163373220843,-0.00550436190470379987,-0.00185541821997444465,0.00292553529632418215,0.0068185819304474888,0.00801940504072893266,0.0057391777022013056,0.000656118348974210445,-0.00524274283158587297,-0.00940759816714215047,-0.00979537186788907374,-0.00581877258587103208,0.00123207111451519979,0.00855201298145392974,0.0128881610816860333,0.01193160022369762,0.00544695773444032159,-0.00437067449415521822,-0.0135502898182889055,-0.0178591927418899482,-0.0146356703337897007,-0.00417663385513765591,0.00995939888597310342,0.0219862659314200362,0.0260425059532786857,0.0186934001983169278,0.000829368350811555619,-0.0218760791697138121,-0.0402828044525977702,-0.0446523214945071939,-0.0280599420467260822,0.0107289377225472035,0.0660946618245529943,0.126591805372893662,0.17801340724896092,0.207515658779211631,0.207515658779211631,0.17801340724896092,0.126591805372893662,0.0660946618245529943,0.0107289377225472035,-0.0280599420467260822,-0.0446523214945071939,-0.0402828044525977702,-0.0218760791697138121,0.000829368350811555619,0.0186934001983169278,0.0260425059532786857,0.0219862659314200362,0.00995939888597310342,-0.00417663385513765591,-0.0146356703337897007,-0.0178591927418899482,-0.0135502898182889055,-0.00437067449415521822,0.00544695773444032159,0.01193160022369762,0.0128881610816860333,0.00855201298145392974,0.00123207111451519979,-0.00581877258587103208,-0.00979537186788907374,-0.00940759816714215047,-0.00524274283158587297,0.000656118348974210445,0.0057391777022013056,0.00801940504072893266,0.0068185819304474888,0.00292553529632418215,-0.00185541821997444465,-0.00550436190470379987,-0.00661199163373220843,-0.00488998846516345773,-0.00120642396735718142,0.00283859520119478887,0.00558049825144030058,0.00592942203894920427,0.00372677817496551477,-0.000276078800524491878,-0.00476169448042158133,-0.00838484534688440156,-0.0101634089185513709,-0.0100412931856771019,-0.00762200002763495886,-0.00703645837090080464,-0.00137344481978157978"
baseline_taps100__firpm__w28.782__ap0.050,baseline_taps100,firpm,99,100,0.05,28.7822341830567,1,1.90032110213541,48.3598582594687,"-0.00382699244213513361,-0.00478163230050990349,-0.00613645760514544038,-0.00618613976451718502,-0.00437975838834144243,-0.000704674305651151276,0.00420245821823070093,0.00913744079099273153,0.0126732545543409465,0.0136609174794822714,0.0116953761688081866,0.00735374634876624113,0.00208163494434159728,-0.00227423686531577976,-0.00414380549960746344,-0.0028683871519169582,0.000975787547046490233,0.00573071188123695525,0.00926725235898608925,0.00984143230429975965,0.0068620504657914555,0.00123867429976231625,-0.00487844233732037842,-0.00891514751187529736,-0.0089506592239755739,-0.00461732002087194768,0.00258126674236931579,0.00972816342807351214,0.0136103984875070513,0.0120866706152416119,0.00514601093276014724,-0.00483212312467178311,-0.0138199141696547494,-0.0176851674180280131,-0.013975153099380036,-0.00321470969582834118,0.0108870233591779088,0.0225471330650343187,0.0260518640625353667,0.01819704013402524,8.75570346056423962e-05,-0.0224946118573203062,-0.0404726695441913892,-0.0442896828056295946,-0.0272704203495083147,0.0116333549952589346,0.066745491141234542,0.126729725943667437,0.177596849243525035,0.206747009746709232,0.206747009746709232,0.177596849243525035,0.126729725943667437,0.066745491141234542,0.0116333549952589346,-0.0272704203495083147,-0.0442896828056295946,-0.0404726695441913892,-0.0224946118573203062,8.75570346056423962e-05,0.01819704013402524,0.0260518640625353667,0.0225471330650343187,0.0108870233591779088,-0.00321470969582834118,-0.013975153099380036,-0.0176851674180280131,-0.0138199141696547494,-0.00483212312467178311,0.00514601093276014724,0.0120866706152416119,0.0136103984875070513,0.00972816342807351214,0.00258126674236931579,-0.00461732002087194768,-0.0089506592239755739,-0.00891514751187529736,-0.00487844233732037842,0.00123867429976231625,0.0068620504657914555,0.00984143230429975965,0.00926725235898608925,0.00573071188123695525,0.000975787547046490233,-0.0028683871519169582,-0.00414380549960746344,-0.00227423686531577976,0.00208163494434159728,0.00735374634876624113,0.0116953761688081866,0.0136609174794822714,0.0126732545543409465,0.00913744079099273153,0.00420245821823070093,-0.000704674305651151276,-0.00437975838834144243,-0.00618613976451718502,-0.00613645760514544038,-0.00478163230050990349,-0.00382699244213513361"
baseline_taps100__firpm__w57.564__ap0.050,baseline_taps100,firpm,99,100,0.05,57.5644683661134,2,2.63183186261604,51.4564422227421,"-0.00217757750867301125,-0.00176515958863481199,-0.00118684348223167119,0.000787904677447191738,0.00425125262359389144,0.00876732814457836969,0.0133715379232165164,0.0167669639144322931,0.0177459459246841061,0.0156306991231662529,0.0106326129461218628,0.00391409541759421553,-0.00268733506582432332,-0.00723118699992864478,-0.00836612177223863829,-0.00586772280408594422,-0.00080966564364714274,0.00475895978834012159,0.00853839897943449791,0.00886315387101057825,0.00540670610323473484,-0.000601347425562195632,-0.00677141988658881526,-0.0104659477716606206,-0.0098873575688837121,-0.00491115416820017258,0.00270929269287645096,0.00991236022271841863,0.0135047776878507546,0.0115176003695370184,0.00418302344381003572,-0.00591513224697938576,-0.0146741481788928534,-0.0180480336708773378,-0.0137900313357671254,-0.00265917448117258728,0.0114787479007677287,0.022831403731199934,0.0258283412751020847,0.0174982196519239824,-0.000835667596692957204,-0.0232833629842003967,-0.0408191280571118253,-0.0440731266846222589,-0.0266122213845832768,0.0124208784457889368,0.0672947070724486812,0.126777775315247504,0.177101047251001592,0.205902934396284376,0.205902934396284376,0.177101047251001592,0.126777775315247504,0.0672947070724486812,0.0124208784457889368,-0.0266122213845832768,-0.0440731266846222589,-0.0408191280571118253,-0.0232833629842003967,-0.000835667596692957204,0.0174982196519239824,0.0258283412751020847,0.022831403731199934,0.0114787479007677287,-0.00265917448117258728,-0.0137900313357671254,-0.0180480336708773378,-0.0146741481788928534,-0.00591513224697938576,0.00418302344381003572,0.0115176003695370184,0.0135047776878507546,0.00991236022271841863,0.00270929269287645096,-0.00491115416820017258,-0.0098873575688837121,-0.0104659477716606206,-0.00677141988658881526,-0.000601347425562195632,0.00540670610323473484,0.00886315387101057825,0.00853839897943449791,0.00475895978834012159,-0.00080966564364714274,-0.00586772280408594422,-0.00836612177223863829,-0.00723118699992864478,-0.00268733506582432332,0.00391409541759421553,0.0106326129461218628,0.0156306991231662529,0.0177459459246841061,0.0167669639144322931,0.0133715379232165164,0.00876732814457836969,0.00425125262359389144,0.000787904677447191738,-0.00118684348223167119,-0.00176515958863481199,-0.00217757750867301125"
baseline_taps100__firpm__w115.129__ap0.050,baseline_taps100,firpm,99,100,0.05,115.128936732227,4,3.43562211821583,55.3738359761241,"-0.00081099347099827866,0.000704983558867128962,0.00268472507448276132,0.00605342614131484415,0.0105052102385096886,0.0152558789745141747,0.0191323564545357178,0.0208721432714399566,0.0195462822180668336,0.0149576746635749439,0.00785955205767983021,-0.000126532356389106974,-0.00693136584700609036,-0.0106855350216257944,-0.0103712862263802205,-0.00626505789475557961,7.24857382647644882e-05,0.00626124819670659163,0.00992909932667001421,0.00959422456685190064,0.00527978260613116892,-0.00140973726135966773,-0.00782935816847700992,-0.0112899153441292765,-0.0101463820000566984,-0.00455080967851298479,0.00346668491827959672,0.0106842228968005003,0.0139248424596807238,0.0113971334857049609,0.00358524250558524878,-0.0067122174225745625,-0.015309033957469095,-0.0182383125149354411,-0.0134572840986721953,-0.00195962904378257571,0.0122262215861006183,0.0232895598774780568,0.0257916814449591497,0.0169830765265587755,-0.00159917972142850726,-0.0239557421736238431,-0.0411011350797176669,-0.0438391224020796763,-0.0259644763477617085,0.0131973080230593995,0.0678586111057442737,0.126882733752972515,0.176704218430403598,0.205183863184773108,0.205183863184773108,0.176704218430403598,0.126882733752972515,0.0678586111057442737,0.0131973080230593995,-0.0259644763477617085,-0.0438391224020796763,-0.0411011350797176669,-0.0239557421736238431,-0.00159917972142850726,0.0169830765265587755,0.0257916814449591497,0.0232895598774780568,0.0122262215861006183,-0.00195962904378257571,-0.0134572840986721953,-0.0182383125149354411,-0.015309033957469095,-0.0067122174225745625,0.00358524250558524878,0.0113971334857049609,0.0139248424596807238,0.0106842228968005003,0.00346668491827959672,-0.00455080967851298479,-0.0101463820000566984,-0.0112899153441292765,-0.00782935816847700992,-0.00140973726135966773,0.00527978260613116892,0.00959422456685190064,0.00992909932667001421,0.00626124819670659163,7.24857382647644882e-05,-0.00626505789475557961,-0.0103712862263802205,-0.0106855350216257944,-0.00693136584700609036,-0.000126532356389106974,0.00785955205767983021,0.0149576746635749439,0.0195462822180668336,0.0208721432714399566,0.0191323564545357178,0.0152558789745141747,0.0105052102385096886,0.00605342614131484415,0.00268472507448276132,0.000704983558867128962,-0.00081099347099827866"
baseline_taps100__firpm__w230.258__ap0.050,baseline_taps100,firpm,99,100,0.05,230.257873464454,8,4.21708726051327,59.6659317726576,"0.000566955876182559512,0.00301471499050430265,0.00597578353379127,0.0105706890887590412,0.0157086775532568473,0.0205077190401140065,0.0236224966224783776,0.0238773595002541583,0.020613844014806669,0.0140568176011878522,0.00541299189057487407,-0.00335081299543116967,-0.0100315081133269673,-0.0128788341354220872,-0.01121790693141499,-0.00576813724181666956,0.00150110662543741008,0.00797388109712334099,0.011275237695929332,0.0101427468167315862,0.0049470407847823257,-0.00236814837405893144,-0.0089491057325085787,-0.0120943579976563222,-0.010334280191360604,-0.00410009022375756177,0.00431444376539331757,0.0115409417331379886,0.0144279925118251731,0.0113587966150287458,0.00306108757570274122,-0.0074617119117787057,-0.0159398686944025106,-0.0184763313441722032,-0.0132131198919089102,-0.00136006132395446403,0.0129014237546697021,0.0237363968055482218,0.0258168287068061553,0.0165870768702333742,-0.00222598773656984463,-0.0245221859182302229,-0.0413468923747205216,-0.0436503853327368449,-0.0254259121755897981,0.0138443449961430445,0.0683205245798738925,0.126948489268304987,0.176335968349688593,0.204537394968946906,0.204537394968946906,0.176335968349688593,0.126948489268304987,0.0683205245798738925,0.0138443449961430445,-0.0254259121755897981,-0.0436503853327368449,-0.0413468923747205216,-0.0245221859182302229,-0.00222598773656984463,0.0165870768702333742,0.0258168287068061553,0.0237363968055482218,0.0129014237546697021,-0.00136006132395446403,-0.0132131198919089102,-0.0184763313441722032,-0.0159398686944025106,-0.0074617119117787057,0.00306108757570274122,0.0113587966150287458,0.0144279925118251731,0.0115409417331379886,0.00431444376539331757,-0.00410009022375756177,-0.010334280191360604,-0.0120943579976563222,-0.0089491057325085787,-0.00236814837405893144,0.0049470407847823257,0.0101427468167315862,0.011275237695929332,0.00797388109712334099,0.00150110662543741008,-0.00576813724181666956,-0.01121790693141499,-0.0128788341354220872,-0.0100315081133269673,-0.00335081299543116967,0.00541299189057487407,0.0140568176011878522,0.020613844014806669,0.0238773595002541583,0.0236224966224783776,0.0205077190401140065,0.0157086775532568473,0.0105706890887590412,0.00597578353379127,0.00301471499050430265,0.000566955876182559512"
baseline_taps100__firpm__w460.516__ap0.050,baseline_taps100,firpm,99,100,0.05,460.515746928907,16,5.37140026573232,63.640040609217,"0.00116745100306271578,0.00269886672034025778,0.00504749720243907306,0.00775612752051737034,0.0100888557545448301,0.011054067154238921,0.00966272360477418366,0.00528589137348884318,-0.00201326514934542684,-0.0112910084042275871,-0.020806459095739957,-0.0283967395947783904,-0.0320770666760063217,-0.0306958699968191556,-0.0244096722611129788,-0.0147884639949821262,-0.00445398142647379473,0.00368302427202858674,0.00735918096641321323,0.00575205310266632339,-0.000170323204301473094,-0.00791298591687398037,-0.0142911004232671099,-0.0165735406406140179,-0.0135295519669336936,-0.00597742619125727574,0.00341644071321613868,0.0110691554872860195,0.0138401846901063247,0.0103218764659119035,0.00155010401702094028,-0.00919673560637689416,-0.0175158755927447632,-0.019559380442590972,-0.0136656524161221701,-0.00129234225496875589,0.0131917546487139645,0.0239008906332094199,0.025608756920642281,0.0159619405252069205,-0.00310383485569322741,-0.0253634102172851025,-0.0418747905684774269,-0.0437267544902573829,-0.0251095859400692345,0.0143257479521900471,0.0686800615003576032,0.126967190998655111,0.175963538992043922,0.203908560022512703,0.203908560022512703,0.175963538992043922,0.126967190998655111,0.0686800615003576032,0.0143257479521900471,-0.0251095859400692345,-0.0437267544902573829,-0.0418747905684774269,-0.0253634102172851025,-0.00310383485569322741,0.0159619405252069205,0.025608756920642281,0.0239008906332094199,0.0131917546487139645,-0.00129234225496875589,-0.0136656524161221701,-0.019559380442590972,-0.0175158755927447632,-0.00919673560637689416,0.00155010401702094028,0.0103218764659119035,0.0138401846901063247,0.0110691554872860195,0.00341644071321613868,-0.00597742619125727574,-0.0135295519669336936,-0.0165735406406140179,-0.0142911004232671099,-0.00791298591687398037,-0.000170323204301473094,0.00575205310266632339,0.00735918096641321323,0.00368302427202858674,-0.00445398142647379473,-0.0147884639949821262,-0.0244096722611129788,-0.0306958699968191556,-0.0320770666760063217,-0.0283967395947783904,-0.020806459095739957,-0.0112910084042275871,-0.00201326514934542684,0.00528589137348884318,0.00966272360477418366,0.011054067154238921,0.0100888557545448301,0.00775612752051737034,0.00504749720243907306,0.00269886672034025778,0.00116745100306271578"
baseline_taps100__firpm__w14.391__ap0.100,baseline_taps100,firpm,99,100,0.1,14.3909978740548,0.25,1.42030305452056,44.8883675098289,"-0.00137338699258783754,-0.00703643260761124909,-0.0076219875230110843,-0.0100412579283666002,-0.0101633963664235685,-0.00838484084679189806,-0.004761702550345491,-0.000276092522488295602,0.00372676409317219308,0.00592941199401747498,0.00558049521214454367,0.00283860001820520919,-0.00120641494573653254,-0.00488997905819951902,-0.00661198658931484544,-0.00550436332717365966,-0.0018554244595670598,0.00292552641806186542,0.00681857444310551408,0.00801940302123039725,0.00573918217677119556,0.000656126222141876006,-0.0052427347039076819,-0.00940759335131017942,-0.00979537179031319399,-0.00581877832258453128,0.00123206165221098705,0.00855200512984695405,0.0128881586012854002,0.0119316025689152685,0.00544696503103378644,-0.00437066430825786695,-0.0135502832442315028,-0.0178591922893114631,-0.0146356751010747101,-0.0041766427249435396,0.00995938926605580317,0.0219862613488295763,0.0260425068707093033,0.0186934069614561778,0.000829378811346401061,-0.0218760705594448976,-0.0402828021845074297,-0.0446523246311718025,-0.0280599507067749027,0.0107289275310619991,0.0660946555488198667,0.126591803955401677,0.178013413611424753,0.207515667316282376,0.207515667316282376,0.178013413611424753,0.126591803955401677,0.0660946555488198667,0.0107289275310619991,-0.0280599507067749027,-0.0446523246311718025,-0.0402828021845074297,-0.0218760705594448976,0.000829378811346401061,0.0186934069614561778,0.0260425068707093033,0.0219862613488295763,0.00995938926605580317,-0.0041766427249435396,-0.0146356751010747101,-0.0178591922893114631,-0.0135502832442315028,-0.00437066430825786695,0.00544696503103378644,0.0119316025689152685,0.0128881586012854002,0.00855200512984695405,0.00123206165221098705,-0.00581877832258453128,-0.00979537179031319399,-0.00940759335131017942,-0.0052427347039076819,0.000656126222141876006,0.00573918217677119556,0.00801940302123039725,0.00681857444310551408,0.00292552641806186542,-0.0018554244595670598,-0.00550436332717365966,-0.00661198658931484544,-0.00488997905819951902,-0.00120641494573653254,0.00283860001820520919,0.00558049521214454367,0.00592941199401747498,0.00372676409317219308,-0.000276092522488295602,-0.004761702550345491,-0.00838484084679189806,-0.0101633963664235685,-0.0100412579283666002,-0.0076219875230110843,-0.00703643260761124909,-0.00137338699258783754"
baseline_taps100__firpm__w28.782__ap0.100,baseline_taps100,firpm,99,100,0.1,28.7819957481096,0.5,1.90031109916791,48.3598233796646,"-0.00382701488763248889,-0.0047816747626337041,-0.00613652941380579513,-0.00618624409119335108,-0.00437989283855323014,-0.000704829892884987434,0.00420229588763837078,0.00913728860401757936,0.0126731282189294844,0.0136608280286734298,0.011695327577835913,0.00735373507494516132,0.00208165162266854597,-0.0022742041877797034,-0.00414376777921660489,-0.00286835159528825347,0.000975818640851301646,0.00573074046950997409,0.00926728256398034501,0.009841467782824357,0.00686209236703611437,0.00123872063271699404,-0.00487839580847277809,-0.00891510539692047174,-0.00895062453083500346,-0.00461729289967608043,0.00258128900607166711,0.0097281851346097091,0.0136104235096228508,0.0120867005916702585,0.00514604451491159232,-0.0048320896723268985,-0.0138198853458527914,-0.0176851465484427067,-0.013975140865669651,-0.00321470374062556756,0.0108870275234440282,0.0225471401796388873,0.0260518771202236099,0.0181970591907980941,8.75793550571225474e-05,-0.0224945904624587398,-0.0404726528314945794,-0.0442896724632634922,-0.0272704152716697415,0.0116333582158629489,0.0667454966915206616,0.126729736906636581,0.177596866218320659,0.206747030602661419,0.206747030602661419,0.177596866218320659,0.126729736906636581,0.0667454966915206616,0.0116333582158629489,-0.0272704152716697415,-0.0442896724632634922,-0.0404726528314945794,-0.0224945904624587398,8.75793550571225474e-05,0.0181970591907980941,0.0260518771202236099,0.0225471401796388873,0.0108870275234440282,-0.00321470374062556756,-0.013975140865669651,-0.0176851465484427067,-0.0138198853458527914,-0.0048320896723268985,0.00514604451491159232,0.0120867005916702585,0.0136104235096228508,0.0097281851346097091,0.00258128900607166711,-0.00461729289967608043,-0.00895062453083500346,-0.00891510539692047174,-0.00487839580847277809,0.00123872063271699404,0.00686209236703611437,0.009841467782824357,0.00926728256398034501,0.00573074046950997409,0.000975818640851301646,-0.00286835159528825347,-0.00414376777921660489,-0.0022742041877797034,0.00208165162266854597,0.00735373507494516132,0.011695327577835913,0.0136608280286734298,0.0126731282189294844,0.00913728860401757936,0.00420229588763837078,-0.000704829892884987434,-0.00437989283855323014,-0.00618624409119335108,-0.00613652941380579513,-0.0047816747626337041,-0.00382701488763248889"
baseline_taps100__firpm__w57.564__ap0.100,baseline_taps100,firpm,99,100,0.1,57.5639914962191,1,2.63182219171454,51.4563992669883,"-0.00217759494469574582,-0.0017651912042621952,-0.00118689427274234409,0.000787834585437185118,0.00425116813298902826,0.00876723875113595216,0.0133714562145588259,0.0167669024248330266,0.0177459140270915632,0.015630700397021538,0.010632643846541296,0.00391414629369084797,-0.00268727738644295149,-0.00723113538104044537,-0.00836608548034688086,-0.00586770531020583061,-0.000809664331780482515,0.0047589518789613065,0.0085383901998170586,0.00886315067011368349,0.00540671105444961216,-0.000601336035508137504,-0.00677140672663472699,-0.0104659381830720967,-0.00988735520808316573,-0.00491115939159823649,0.00270928277338801371,0.0099123503473696143,0.0135047721852397315,0.0115176013199462107,0.0041830298845948119,-0.00591512382540936368,-0.0146741421940027109,-0.018048033500547761,-0.0137900376761258339,-0.00265918502196989216,0.0114787375061663286,0.0228313979501246836,0.0258283427395694931,0.0174982280643840304,-0.000835655401871693293,-0.0232833516407002922,-0.0408191217394868883,-0.0440731273391451808,-0.0266122280269374886,0.0124208691485334245,0.0672946993161377405,0.126777772279248885,0.177101049775370389,0.205902940589138717,0.205902940589138717,0.177101049775370389,0.126777772279248885,0.0672946993161377405,0.0124208691485334245,-0.0266122280269374886,-0.0440731273391451808,-0.0408191217394868883,-0.0232833516407002922,-0.000835655401871693293,0.0174982280643840304,0.0258283427395694931,0.0228313979501246836,0.0114787375061663286,-0.00265918502196989216,-0.0137900376761258339,-0.018048033500547761,-0.0146741421940027109,-0.00591512382540936368,0.0041830298845948119,0.0115176013199462107,0.0135047721852397315,0.0099123503473696143,0.00270928277338801371,-0.00491115939159823649,-0.00988735520808316573,-0.0104659381830720967,-0.00677140672663472699,-0.000601336035508137504,0.00540671105444961216,0.00886315067011368349,0.0085383901998170586,0.0047589518789613065,-0.000809664331780482515,-0.00586770531020583061,-0.00836608548034688086,-0.00723113538104044537,-0.00268727738644295149,0.00391414629369084797,0.010632643846541296,0.015630700397021538,0.0177459140270915632,0.0167669024248330266,0.0133714562145588259,0.00876723875113595216,0.00425116813298902826,0.000787834585437185118,-0.00118689427274234409,-0.0017651912042621952,-0.00217759494469574582"
baseline_taps100__firpm__w115.128__ap0.100,baseline_taps100,firpm,99,100,0.1,115.127982992438,2,3.43561265041453,55.3737908424026,"-0.000811008932719841681,0.000704955774016264441,0.00268468306234308576,0.00605336942052002447,0.0105051434229303312,0.0152558105615107874,0.0191322968029594351,0.0208721018183703824,0.0195462652672199269,0.0149576836385855744,0.00785958219187102639,-0.000126490753063189651,-0.00693132401125853576,-0.0106855032332132515,-0.0103712709040818078,-0.00626505983289938825,7.24709782883729879e-05,0.00626122845493827952,0.00992908259841309565,0.00959421657046465731,0.00527978486354900231,-0.00140972747512444819,-0.00782934598917923129,-0.0112899062195180797,-0.0101463795803641843,-0.00455081417835042669,0.00346667650983489666,0.0106842152533811168,0.0139248396306105339,0.0113971372780890916,0.00358525192023535517,-0.00671220607081222942,-0.0153090252001179834,-0.0182383098406145791,-0.0134572885476243638,-0.00195963870830610917,0.0122262106937493387,0.0232895520753152035,0.0257916794977705796,0.0169830805681513222,-0.0015991719797786132,-0.0239557345684209069,-0.0411011312328925932,-0.0438391239251976761,-0.0259644824624410513,0.0131973001174724297,0.0678586049043379963,0.126882731989763076,0.176704221773823722,0.205183869817001596,0.205183869817001596,0.176704221773823722,0.126882731989763076,0.0678586049043379963,0.0131973001174724297,-0.0259644824624410513,-0.0438391239251976761,-0.0411011312328925932,-0.0239557345684209069,-0.0015991719797786132,0.0169830805681513222,0.0257916794977705796,0.0232895520753152035,0.0122262106937493387,-0.00195963870830610917,-0.0134572885476243638,-0.0182383098406145791,-0.0153090252001179834,-0.00671220607081222942,0.00358525192023535517,0.0113971372780890916,0.0139248396306105339,0.0106842152533811168,0.00346667650983489666,-0.00455081417835042669,-0.0101463795803641843,-0.0112899062195180797,-0.00782934598917923129,-0.00140972747512444819,0.00527978486354900231,0.00959421657046465731,0.00992908259841309565,0.00626122845493827952,7.24709782883729879e-05,-0.00626505983289938825,-0.0103712709040818078,-0.0106855032332132515,-0.00693132401125853576,-0.000126490753063189651,0.00785958219187102639,0.0149576836385855744,0.0195462652672199269,0.0208721018183703824,0.0191322968029594351,0.0152558105615107874,0.0105051434229303312,0.00605336942052002447,0.00268468306234308576,0.000704955774016264441,-0.000811008932719841681"
baseline_taps100__firpm__w230.256__ap0.100,baseline_taps100,firpm,99,100,0.1,230.255965984877,4,4.21707760431856,59.6658728417556,"0.000566935887680786589,0.00301468772049665826,0.00597574637176149538,0.0105706347570823714,0.0157086187867901995,0.0205076597723309606,0.023622447170398353,0.0238773271988182954,0.0206138337778475067,0.0140568290224220901,0.00541301980585607353,-0.00335077741440312996,-0.0100314749213441419,-0.012878811807765931,-0.011217899743367855,-0.00576814460585659862,0.0015010892766695429,0.00797386158180096727,0.0112752229848220135,0.010142741390435011,0.00494704513596994511,-0.00236813712448157281,-0.00894909309073723541,-0.0120943496855343627,-0.0103342787827201028,-0.00410009621087859943,0.00431443372040447512,0.0115409324333864052,0.0144279874954472559,0.0113587979366259091,0.00306109468107662423,-0.00746170219485007332,-0.0159398605837405317,-0.0184763276704748361,-0.0132131222122408038,-0.0013600678763218783,0.0129014162313234038,0.0237363914234599779,0.0258168279951817362,0.0165870804131127252,-0.00222598158787664507,-0.0245221805292313542,-0.0413468907459054319,-0.0436503882115231723,-0.0254259187241083692,0.013844337490598338,0.0683205197725231528,0.126948489088486105,0.176335973346720409,0.204537403336425588,0.204537403336425588,0.176335973346720409,0.126948489088486105,0.0683205197725231528,0.013844337490598338,-0.0254259187241083692,-0.0436503882115231723,-0.0413468907459054319,-0.0245221805292313542,-0.00222598158787664507,0.0165870804131127252,0.0258168279951817362,0.0237363914234599779,0.0129014162313234038,-0.0013600678763218783,-0.0132131222122408038,-0.0184763276704748361,-0.0159398605837405317,-0.00746170219485007332,0.00306109468107662423,0.0113587979366259091,0.0144279874954472559,0.0115409324333864052,0.00431443372040447512,-0.00410009621087859943,-0.0103342787827201028,-0.0120943496855343627,-0.00894909309073723541,-0.00236813712448157281,0.00494704513596994511,0.010142741390435011,0.0112752229848220135,0.00797386158180096727,0.0015010892766695429,-0.00576814460585659862,-0.011217899743367855,-0.012878811807765931,-0.0100314749213441419,-0.00335077741440312996,0.00541301980585607353,0.0140568290224220901,0.0206138337778475067,0.0238773271988182954,0.023622447170398353,0.0205076597723309606,0.0157086187867901995,0.0105706347570823714,0.00597574637176149538,0.00301468772049665826,0.000566935887680786589"
baseline_taps100__firpm__w460.512__ap0.100,baseline_taps100,firpm,99,100,0.1,460.511931969753,8,5.37138234062745,63.6399976398102,"0.00116745889540991821,0.00269888925848872164,0.00504754662899459337,0.00775621789675850267,0.0100890005141158756,0.0110542753929495051,0.00966299631395655528,0.00528621868638621314,-0.00201290459859321865,-0.0112906453385498672,-0.0208061288493102403,-0.0283964755267095761,-0.0320768934539445161,-0.0306957984504582296,-0.0244096972624820857,-0.0147885661419494552,-0.00445413205686353252,0.00368285609723975269,0.00735902145006866147,0.00575191858521227877,-0.000170428103350690231,-0.00791306667925877928,-0.0142911683972789458,-0.0165736076954952627,-0.0135296259472345824,-0.00597750859959050255,0.00341635432122244873,0.0110690728796848346,0.0138401133020531718,0.0103218201988493352,0.00155006173606463279,-0.00919676946518948983,-0.01751590867791087,-0.0195594194498390078,-0.0136657006042382248,-0.00129239841837374162,0.0131916954089198978,0.0239008347699662012,0.0256087098885493664,0.0159619048507152229,-0.00310386022933663991,-0.0253634291615274926,-0.0418748079698490761,-0.0437267743166002421,-0.0251096099810087722,0.0143257202545655337,0.0686800322027268373,0.126967162295668484,0.175963512031611591,0.203908534461591406,0.203908534461591406,0.175963512031611591,0.126967162295668484,0.0686800322027268373,0.0143257202545655337,-0.0251096099810087722,-0.0437267743166002421,-0.0418748079698490761,-0.0253634291615274926,-0.00310386022933663991,0.0159619048507152229,0.0256087098885493664,0.0239008347699662012,0.0131916954089198978,-0.00129239841837374162,-0.0136657006042382248,-0.0195594194498390078,-0.01751590867791087,-0.00919676946518948983,0.00155006173606463279,0.0103218201988493352,0.0138401133020531718,0.0110690728796848346,0.00341635432122244873,-0.00597750859959050255,-0.0135296259472345824,-0.0165736076954952627,-0.0142911683972789458,-0.00791306667925877928,-0.000170428103350690231,0.00575191858521227877,0.00735902145006866147,0.00368285609723975269,-0.00445413205686353252,-0.0147885661419494552,-0.0244096972624820857,-0.0306957984504582296,-0.0320768934539445161,-0.0283964755267095761,-0.0208061288493102403,-0.0112906453385498672,-0.00201290459859321865,0.00528621868638621314,0.00966299631395655528,0.0110542753929495051,0.0100890005141158756,0.00775621789675850267,0.00504754662899459337,0.00269888925848872164,0.00116745889540991821"
baseline_taps100__firpm__w921.024__ap0.100,baseline_taps100,firpm,99,100,0.1,921.023863939506,16,6.97527545615615,67.4254317988182,"0.00061412211702318361,0.00115065961355028334,0.00171570200385524679,0.00178213962343000865,0.000724128826810022889,-0.00208594222457255665,-0.00703394025520547202,-0.0140022106675071461,-0.0221990664198830762,-0.0301732538337961681,-0.0360655672017381537,-0.0380790787937872535,-0.0350488047337829817,-0.0269326468811967104,-0.0150355825557965186,-0.00183139895606962335,0.00962638880054009216,0.0165665418721554041,0.0173795775798634838,0.0122116341501870857,0.00303159570934557381,-0.00691021736580132995,-0.0141032506746084918,-0.0159608210564975775,-0.0117598668814348443,-0.00297656551792374949,0.00715395270029422874,0.0147515250140081641,0.0167180351999010601,0.0119692738351774366,0.00199140385851880476,-0.00954476445284468955,-0.0180450871768314709,-0.0197231230083705564,-0.0131797715928621828,-0.000211270058663411749,0.0145420603119513093,0.0250936554360056338,0.0263108329766479701,0.0160693188194991933,-0.00344099984219357414,-0.0258279543050331656,-0.0421360783767736335,-0.0435890629585615752,-0.0245897525063568621,0.0150214575492885888,0.0692644684504118979,0.12721356002096329,0.175813336374945811,0.20349677505274788,0.20349677505274788,0.175813336374945811,0.12721356002096329,0.0692644684504118979,0.0150214575492885888,-0.0245897525063568621,-0.0435890629585615752,-0.0421360783767736335,-0.0258279543050331656,-0.00344099984219357414,0.0160693188194991933,0.0263108329766479701,0.0250936554360056338,0.0145420603119513093,-0.000211270058663411749,-0.0131797715928621828,-0.0197231230083705564,-0.0180450871768314709,-0.00954476445284468955,0.00199140385851880476,0.0119692738351774366,0.0167180351999010601,0.0147515250140081641,0.00715395270029422874,-0.00297656551792374949,-0.0117598668814348443,-0.0159608210564975775,-0.0141032506746084918,-0.00691021736580132995,0.00303159570934557381,0.0122116341501870857,0.0173795775798634838,0.0165665418721554041,0.00962638880054009216,-0.00183139895606962335,-0.0150355825557965186,-0.0269326468811967104,-0.0350488047337829817,-0.0380790787937872535,-0.0360655672017381537,-0.0301732538337961681,-0.0221990664198830762,-0.0140022106675071461,-0.00703394025520547202,-0.00208594222457255665,0.000724128826810022889,0.00178213962343000865,0.00171570200385524679,0.00115065961355028334,0.00061412211702318361"
baseline_order100__firpm__w1.439__ap0.010,baseline_order100,firpm,100,101,0.01,1.43911552416211,0.25,0.46598945956942,34.5921264352056,"0.00474546049651057133,0.0109337232492366307,0.000263576856014631261,0.0025224804371651666,-0.00164233176121187361,-0.00288609858932618261,-0.00381230154395270898,-0.00258952167252461804,-0.000180890745980511803,0.0026521838660171714,0.00452086663612808002,0.00450322048290123338,0.00237180162771566958,-0.00109503650423732049,-0.00444104535791873742,-0.00609814686698353491,-0.00510628780523038946,-0.00164065768250894412,0.00297557440810392385,0.00672879635800349273,0.00777839468939792601,0.00534527141186558891,0.000150950869209559753,-0.00570653979590507281,-0.00959047092885384478,-0.00947899769710459049,-0.00494080594224255518,0.00244391661442826605,0.00960377753760408535,0.0131958295577483571,0.0110847246252782031,0.00350547902504828694,-0.00676592503613955999,-0.0153384960830429806,-0.0179549225852107495,-0.0124901649735060395,-0.000199338301572307783,0.0143312966600147671,0.0246866618091096252,0.0251972920147667187,0.0135752434637547107,-0.0074727380799479012,-0.0303726662461831498,-0.044796129225532888,-0.0411512913148702197,-0.0142634319955126029,0.034164313675391654,0.0952388886405587387,0.155022768948932521,0.198569515191646284,0.214501313367871593,0.198569515191646284,0.155022768948932521,0.0952388886405587387,0.034164313675391654,-0.0142634319955126029,-0.0411512913148702197,-0.044796129225532888,-0.0303726662461831498,-0.0074727380799479012,0.0135752434637547107,0.0251972920147667187,0.0246866618091096252,0.0143312966600147671,-0.000199338301572307783,-0.0124901649735060395,-0.0179549225852107495,-0.0153384960830429806,-0.00676592503613955999,0.00350547902504828694,0.0110847246252782031,0.0131958295577483571,0.00960377753760408535,0.00244391661442826605,-0.00494080594224255518,-0.00947899769710459049,-0.00959047092885384478,-0.00570653979590507281,0.000150950869209559753,0.00534527141186558891,0.00777839468939792601,0.00672879635800349273,0.00297557440810392385,-0.00164065768250894412,-0.00510628780523038946,-0.00609814686698353491,-0.00444104535791873742,-0.00109503650423732049,0.00237180162771566958,0.00450322048290123338,0.00452086663612808002,0.0026521838660171714,-0.000180890745980511803,-0.00258952167252461804,-0.00381230154395270898,-0.00288609858932618261,-0.00164233176121187361,0.0025224804371651666,0.000263576856014631261,0.0109337232492366307,0.00474546049651057133"
baseline_order100__firpm__w2.878__ap0.010,baseline_order100,firpm,100,101,0.01,2.87823104832422,0.5,0.668145953552434,37.4857592653849,"0.00781928868379662412,0.00181712602658659389,0.000197364528286021295,-0.00231741257394832119,-0.00489193596223844087,-0.00652790266219630596,-0.00648416827162165248,-0.00461856447641533635,-0.00153433374499221259,0.00160580914168009987,0.00351161664433065389,0.00333277765444929801,0.00106265942588306414,-0.00236397606263070168,-0.00541646273982832136,-0.00658627707340342199,-0.00509491414173239392,-0.00129653911904650354,0.00334602471603727154,0.00682723706964673618,0.00744041540507969952,0.00460797611270256143,-0.000745097013681760164,-0.0064250356704067214,-0.00985945493459245217,-0.00920462322963923676,-0.0042775332358729835,0.00319933221417788381,0.010088127670541602,0.0131619442015791406,0.0105345223348092768,0.00264490755320060788,-0.00756773369805761528,-0.015732284719246023,-0.0177706151128016604,-0.0118073729141912488,0.000687467991705350851,0.0150248440312399385,0.024880603373579873,0.0247989720582501641,0.0127456223382154867,-0.00837485979252905119,-0.030948039829600503,-0.0447905530066141574,-0.0405713912194648682,-0.0133525085633318195,0.0350085178484531856,0.0956449515929837096,0.154813679436778373,0.197836963515901132,0.213561350531497718,0.197836963515901132,0.154813679436778373,0.0956449515929837096,0.0350085178484531856,-0.0133525085633318195,-0.0405713912194648682,-0.0447905530066141574,-0.030948039829600503,-0.00837485979252905119,0.0127456223382154867,0.0247989720582501641,0.024880603373579873,0.0150248440312399385,0.000687467991705350851,-0.0118073729141912488,-0.0177706151128016604,-0.015732284719246023,-0.00756773369805761528,0.00264490755320060788,0.0105345223348092768,0.0131619442015791406,0.010088127670541602,0.00319933221417788381,-0.0042775332358729835,-0.00920462322963923676,-0.00985945493459245217,-0.0064250356704067214,-0.000745097013681760164,0.00460797611270256143,0.00744041540507969952,0.00682723706964673618,0.00334602471603727154,-0.00129653911904650354,-0.00509491414173239392,-0.00658627707340342199,-0.00541646273982832136,-0.00236397606263070168,0.00106265942588306414,0.00333277765444929801,0.00351161664433065389,0.00160580914168009987,-0.00153433374499221259,-0.00461856447641533635,-0.00648416827162165248,-0.00652790266219630596,-0.00489193596223844087,-0.00231741257394832119,0.000197364528286021295,0.00181712602658659389,0.00781928868379662412"
baseline_order100__firpm__w5.756__ap0.010,baseline_order100,firpm,100,101,0.01,5.75646209664843,1,0.962069347771534,40.2591021651833,"0.00451309136034740415,-0.00131582665781702544,-0.00326351884183659693,-0.00571260693947261283,-0.00769625359023528785,-0.00829246133815174195,-0.00700306917735488577,-0.00400127737133168949,-0.000162438886053285368,0.00321262290760401196,0.00488372808293452074,0.00420178055957721921,0.0014283051774895872,-0.00228130412309062239,-0.00530166926578234509,-0.0061922379434323823,-0.00434957654022585533,-0.000340015543961128517,0.00423366420020703741,0.00735779454421876377,0.00746080696921997549,0.00417699115925666744,-0.00137015226483910802,-0.00690847704059381271,-0.00992809974872304463,-0.0087700456724714923,-0.00347868440702750427,0.00403596310399087499,0.0106229727704939599,0.0131705846716535686,0.00999939228199387894,0.0018228756020827032,-0.00831884476849906185,-0.016071938598553083,-0.017527312260030941,-0.0110757408919591547,0.00160281967696443949,0.015733616551639875,0.0250716479546030588,0.0243877703516489873,0.0119076960483460812,-0.00927553944069847355,-0.0315173652384154387,-0.0447772189354500513,-0.0399752112594261785,-0.0124327663887520614,0.035856800179713183,0.096051116159660388,0.154598217287733319,0.197091688825463296,0.212610376241486376,0.197091688825463296,0.154598217287733319,0.096051116159660388,0.035856800179713183,-0.0124327663887520614,-0.0399752112594261785,-0.0447772189354500513,-0.0315173652384154387,-0.00927553944069847355,0.0119076960483460812,0.0243877703516489873,0.0250716479546030588,0.015733616551639875,0.00160281967696443949,-0.0110757408919591547,-0.017527312260030941,-0.016071938598553083,-0.00831884476849906185,0.0018228756020827032,0.00999939228199387894,0.0131705846716535686,0.0106229727704939599,0.00403596310399087499,-0.00347868440702750427,-0.0087700456724714923,-0.00992809974872304463,-0.00690847704059381271,-0.00137015226483910802,0.00417699115925666744,0.00746080696921997549,0.00735779454421876377,0.00423366420020703741,-0.000340015543961128517,-0.00434957654022585533,-0.0061922379434323823,-0.00530166926578234509,-0.00228130412309062239,0.0014283051774895872,0.00420178055957721921,0.00488372808293452074,0.00321262290760401196,-0.000162438886053285368,-0.00400127737133168949,-0.00700306917735488577,-0.00829246133815174195,-0.00769625359023528785,-0.00571260693947261283,-0.00326351884183659693,-0.00131582665781702544,0.00451309136034740415"
baseline_order100__firpm__w11.513__ap0.010,baseline_order100,firpm,100,101,0.01,11.5129241932969,2,1.30375830990522,43.6950859105998,"0.00141119952262228261,-0.00423075072361561635,-0.00603704483039111013,-0.00834518670859253978,-0.00970714322471564681,-0.00928449221509998479,-0.00685870144023623899,-0.00293186571622729543,0.00137422728317015529,0.00467503844283843461,0.00583473107824438505,0.00444609853339669476,0.00106202344842485936,-0.00294106096884999731,-0.00586221467966960286,-0.00635584633292857453,-0.00403122901404424396,0.000304271172111072465,0.00489258091572902093,0.00771486347038379764,0.00733859663236009329,0.00362250403255287177,-0.00211078911325816116,-0.00750174150422331775,-0.0100976242144847055,-0.00842300311687144317,-0.00275538436922164159,0.00481904430291676521,0.0111155776004375883,0.0131474824407814828,0.00946477793922119622,0.000994698196919718402,-0.00907901145796852736,-0.0164203935723568513,-0.0173122068881362903,-0.0103723853579518865,0.00248707042620963234,0.0164129760059739671,0.0252469151036425442,0.0239773600490338738,0.0110777756191675937,-0.0101615964220779908,-0.0320713390089545775,-0.0447596968014080804,-0.0393814056724186151,-0.0115181609863810614,0.036700435861800336,0.0964585254512371482,0.154396611586909344,0.196371097811895323,0.211688701081833214,0.196371097811895323,0.154396611586909344,0.0964585254512371482,0.036700435861800336,-0.0115181609863810614,-0.0393814056724186151,-0.0447596968014080804,-0.0320713390089545775,-0.0101615964220779908,0.0110777756191675937,0.0239773600490338738,0.0252469151036425442,0.0164129760059739671,0.00248707042620963234,-0.0103723853579518865,-0.0173122068881362903,-0.0164203935723568513,-0.00907901145796852736,0.000994698196919718402,0.00946477793922119622,0.0131474824407814828,0.0111155776004375883,0.00481904430291676521,-0.00275538436922164159,-0.00842300311687144317,-0.0100976242144847055,-0.00750174150422331775,-0.00211078911325816116,0.00362250403255287177,0.00733859663236009329,0.00771486347038379764,0.00489258091572902093,0.000304271172111072465,-0.00403122901404424396,-0.00635584633292857453,-0.00586221467966960286,-0.00294106096884999731,0.00106202344842485936,0.00444609853339669476,0.00583473107824438505,0.00467503844283843461,0.00137422728317015529,-0.00293186571622729543,-0.00685870144023623899,-0.00928449221509998479,-0.00970714322471564681,-0.00834518670859253978,-0.00603704483039111013,-0.00423075072361561635,0.00141119952262228261"
baseline_order100__firpm__w23.026__ap0.010,baseline_order100,firpm,100,101,0.01,23.0258483865937,4,1.66312601811109,47.6324126615241,"-0.00245290899967061816,-0.00677161364289627279,-0.0079610987295676023,-0.011157502855445374,-0.0113215224017755491,-0.0101467830199080105,-0.00652052699900437707,-0.00187922799217566934,0.00279470963706732276,0.00588693555020381159,0.00649023473868026203,0.0043953339016370328,0.000460572236621310674,-0.00375712375368675517,-0.00650108118925068514,-0.00654281301320750949,-0.00370868531214390423,0.000964134101841149834,0.00557256328948736376,0.00809816011790223667,0.00725093330326425246,0.00310500624785010329,-0.00282276416927327222,-0.00807965082984392867,-0.0102718134098697556,-0.00810824144824877878,-0.00207976440485994679,0.0055608170864928216,0.0115985664283862061,0.0131531944313730675,0.0089851021606950493,0.000236849903000998434,-0.00978099303229800973,-0.0167552306414297525,-0.0171233812244935592,-0.00974017494350973116,0.00329289538632720775,0.0170383151948703231,0.0254145158961788901,0.0236043714749806302,0.0103264024462897362,-0.0109691477512516167,-0.0325869048787690713,-0.0447526034305049947,-0.038856983272192884,-0.0107031288680557776,0.0374469564168901647,0.0968104827500166354,0.154191093196369561,0.195693724547686076,0.210827468424985842,0.195693724547686076,0.154191093196369561,0.0968104827500166354,0.0374469564168901647,-0.0107031288680557776,-0.038856983272192884,-0.0447526034305049947,-0.0325869048787690713,-0.0109691477512516167,0.0103264024462897362,0.0236043714749806302,0.0254145158961788901,0.0170383151948703231,0.00329289538632720775,-0.00974017494350973116,-0.0171233812244935592,-0.0167552306414297525,-0.00978099303229800973,0.000236849903000998434,0.0089851021606950493,0.0131531944313730675,0.0115985664283862061,0.0055608170864928216,-0.00207976440485994679,-0.00810824144824877878,-0.0102718134098697556,-0.00807965082984392867,-0.00282276416927327222,0.00310500624785010329,0.00725093330326425246,0.00809816011790223667,0.00557256328948736376,0.000964134101841149834,-0.00370868531214390423,-0.00654281301320750949,-0.00650108118925068514,-0.00375712375368675517,0.000460572236621310674,0.0043953339016370328,0.00649023473868026203,0.00588693555020381159,0.00279470963706732276,-0.00187922799217566934,-0.00652052699900437707,-0.0101467830199080105,-0.0113215224017755491,-0.011157502855445374,-0.0079610987295676023,-0.00677161364289627279,-0.00245290899967061816"
baseline_order100__firpm__w46.052__ap0.010,baseline_order100,firpm,100,101,0.01,46.0516967731875,8,2.27431809365352,50.7990180993941,"-0.00292644928754201041,-0.00375183122981693866,-0.00476802163571576898,-0.00458068149145473766,-0.00265513906158223968,0.00108137236734905627,0.00607638297277332106,0.0111946726385448309,0.0150153832808123961,0.0162945684966756058,0.014447532026503682,0.00984898048258561754,0.00382479311661115774,-0.00173691938555765586,-0.00503183299397248068,-0.00502164870572653719,-0.00187153389561688717,0.00302404756659918009,0.00753498397658169342,0.00959773070918314153,0.00806705094736198322,0.0032640485599608241,-0.00305992057244343189,-0.00833963127873905107,-0.0102295212530635546,-0.00762373796883300276,-0.00125426313413670265,0.00644566098951662031,0.0122127236578859384,0.0132754470469441423,0.00860565155077169623,-0.000437844046164304155,-0.0104142926504462094,-0.0170304085747525411,-0.016886964193884333,-0.00906502737034990506,0.0041325309938119708,0.0176891997463741006,0.0255989218626605404,0.0232448543583957598,0.0095816186388079129,-0.0117750246489609408,-0.0331003486892315277,-0.0447473390542099878,-0.0383357161866793236,-0.00989052745516316376,0.0381963451598238968,0.0971661931449690625,0.153997850185922991,0.195031833513926722,0.209981591278001506,0.195031833513926722,0.153997850185922991,0.0971661931449690625,0.0381963451598238968,-0.00989052745516316376,-0.0383357161866793236,-0.0447473390542099878,-0.0331003486892315277,-0.0117750246489609408,0.0095816186388079129,0.0232448543583957598,0.0255989218626605404,0.0176891997463741006,0.0041325309938119708,-0.00906502737034990506,-0.016886964193884333,-0.0170304085747525411,-0.0104142926504462094,-0.000437844046164304155,0.00860565155077169623,0.0132754470469441423,0.0122127236578859384,0.00644566098951662031,-0.00125426313413670265,-0.00762373796883300276,-0.0102295212530635546,-0.00833963127873905107,-0.00305992057244343189,0.0032640485599608241,0.00806705094736198322,0.00959773070918314153,0.00753498397658169342,0.00302404756659918009,-0.00187153389561688717,-0.00502164870572653719,-0.00503183299397248068,-0.00173691938555765586,0.00382479311661115774,0.00984898048258561754,0.014447532026503682,0.0162945684966756058,0.0150153832808123961,0.0111946726385448309,0.00607638297277332106,0.00108137236734905627,-0.00265513906158223968,-0.00458068149145473766,-0.00476802163571576898,-0.00375183122981693866,-0.00292644928754201041"
baseline_order100__firpm__w92.103__ap0.010,baseline_order100,firpm,100,101,0.01,92.1033935463749,16,3.09053440833007,54.2646062889768,"-0.00156306426576378519,-0.00112116494224806474,-0.000347445385045568717,0.00176578474025783924,0.00533102829423163019,0.00996596720444276746,0.0147611915819598326,0.0184487153109607512,0.0197684576452014926,0.0179177643314277664,0.0129316921599773454,0.00581834471590193716,-0.00163398354864109684,-0.00737131804162172166,-0.00975755845066627117,-0.00819159911880419818,-0.00339846182232600392,0.00274105546268503227,0.00781496911371622367,0.00975859205159104043,0.00767574545515443876,0.00224583658708241629,-0.00444087778680814834,-0.00964457572994761696,-0.0110570513723219407,-0.00778389554233498756,-0.000842605061289089974,0.00710530927905756501,0.0127193278131493594,0.0133308504096154492,0.00813928054570942257,-0.00124754381538649166,-0.0112282229317186236,-0.0175077176638088194,-0.0168385182281582356,-0.00853601909064803308,0.00488352952002016685,0.0183090469825659095,0.0257961026229616731,0.0229212009099208913,0.00887346221569738046,-0.0125561406129771728,-0.0336072374409993879,-0.0447527097339468979,-0.0378321531718209259,-0.00909598625560010914,0.0389354745410331674,0.097527364129992189,0.15382446161190283,0.194401885034740513,0.209173342030013559,0.194401885034740513,0.15382446161190283,0.097527364129992189,0.0389354745410331674,-0.00909598625560010914,-0.0378321531718209259,-0.0447527097339468979,-0.0336072374409993879,-0.0125561406129771728,0.00887346221569738046,0.0229212009099208913,0.0257961026229616731,0.0183090469825659095,0.00488352952002016685,-0.00853601909064803308,-0.0168385182281582356,-0.0175077176638088194,-0.0112282229317186236,-0.00124754381538649166,0.00813928054570942257,0.0133308504096154492,0.0127193278131493594,0.00710530927905756501,-0.000842605061289089974,-0.00778389554233498756,-0.0110570513723219407,-0.00964457572994761696,-0.00444087778680814834,0.00224583658708241629,0.00767574545515443876,0.00975859205159104043,0.00781496911371622367,0.00274105546268503227,-0.00339846182232600392,-0.00819159911880419818,-0.00975755845066627117,-0.00737131804162172166,-0.00163398354864109684,0.00581834471590193716,0.0129316921599773454,0.0179177643314277664,0.0197684576452014926,0.0184487153109607512,0.0147611915819598326,0.00996596720444276746,0.00533102829423163019,0.00176578474025783924,-0.000347445385045568717,-0.00112116494224806474,-0.00156306426576378519"
baseline_order100__firpm__w7.196__ap0.050,baseline_order100,firpm,100,101,0.05,7.19555854576418,0.25,1.07032392584121,41.2618525220467,"0.003505512865249773,-0.00225510858358357819,-0.00421985687884515476,-0.00660912639150629689,-0.00837914374869758519,-0.0086347379654444379,-0.00696384617443577148,-0.00364651638066402703,0.000359217201204136089,0.00372465937013473358,0.00524058428711169158,0.00433303782340129732,0.00135709904898025958,-0.00245840468138290667,-0.00545994728546352406,-0.00623301766448734404,-0.00424134502593962164,-0.000130055052411069639,0.00444633448985566095,0.00747114458318870554,0.00742044679809648281,0.00399944651518551342,-0.00160675597287323669,-0.00709890561404350959,-0.00998191150002698119,-0.00865458439892264134,-0.00323682985993775261,0.00429917016161379412,0.0107909989774232253,0.0131716021970073212,0.00983845011145356545,0.00156069095786137268,-0.00856890045130401061,-0.0161826344185977064,-0.0174582783294624892,-0.0108478543587806602,0.00189698769735167547,0.0159598877173339065,0.0251338824230844041,0.0242542386926528804,0.0116339762049949644,-0.00957141332268991382,-0.0317080675518720267,-0.044781721324313184,-0.0397921821871653064,-0.0121434594532926609,0.0361251413875240193,0.0961805526756194795,0.154532390904210698,0.19686005577891072,0.212314515794573666,0.19686005577891072,0.154532390904210698,0.0961805526756194795,0.0361251413875240193,-0.0121434594532926609,-0.0397921821871653064,-0.044781721324313184,-0.0317080675518720267,-0.00957141332268991382,0.0116339762049949644,0.0242542386926528804,0.0251338824230844041,0.0159598877173339065,0.00189698769735167547,-0.0108478543587806602,-0.0174582783294624892,-0.0161826344185977064,-0.00856890045130401061,0.00156069095786137268,0.00983845011145356545,0.0131716021970073212,0.0107909989774232253,0.00429917016161379412,-0.00323682985993775261,-0.00865458439892264134,-0.00998191150002698119,-0.00709890561404350959,-0.00160675597287323669,0.00399944651518551342,0.00742044679809648281,0.00747114458318870554,0.00444633448985566095,-0.000130055052411069639,-0.00424134502593962164,-0.00623301766448734404,-0.00545994728546352406,-0.00245840468138290667,0.00135709904898025958,0.00433303782340129732,0.00524058428711169158,0.00372465937013473358,0.000359217201204136089,-0.00364651638066402703,-0.00696384617443577148,-0.0086347379654444379,-0.00837914374869758519,-0.00660912639150629689,-0.00421985687884515476,-0.00225510858358357819,0.003505512865249773"
baseline_order100__firpm__w14.391__ap0.050,baseline_order100,firpm,100,101,0.05,14.3911170915284,0.5,1.41864690877452,44.9286971176202,"0.000354588594501104026,-0.00518065463057157134,-0.00677382848459612188,-0.00913841470123765223,-0.0103082400061370715,-0.00955661890632685321,-0.00678281492980600722,-0.00258703255522570045,0.00183716385552990078,0.00508726773548571782,0.00606816164827945256,0.00445233239250387731,0.000883191249063828882,-0.00319456823990781373,-0.00606328211432725743,-0.00641345052964303452,-0.0039261693051280697,0.000517093861705444999,0.0051119684994518572,0.00783580755102513543,0.00730574832387147384,0.00344708944728741844,-0.00235062523914749723,-0.00769642015987202603,-0.0101558790418719534,-0.00831843003360301786,-0.00253176517931916548,0.00506321443924977882,0.0112731707859923432,0.0131453283062296974,0.00929934941213863414,0.00073417616675846187,-0.00931960302139308791,-0.0165343201512493654,-0.0172475121826527258,-0.0101570403382134373,0.00276440473608515706,0.016634528253197129,0.0253162495055687768,0.0238629562423222433,0.0108378714663881735,-0.0104214867400388173,-0.0322388285618666892,-0.0447541395793415453,-0.0392071287061230497,-0.0112468707729649359,0.0369426808596698963,0.0965677938197117697,0.154317433450709085,0.196130520032552158,0.211389873045883081,0.196130520032552158,0.154317433450709085,0.0965677938197117697,0.0369426808596698963,-0.0112468707729649359,-0.0392071287061230497,-0.0447541395793415453,-0.0322388285618666892,-0.0104214867400388173,0.0108378714663881735,0.0238629562423222433,0.0253162495055687768,0.016634528253197129,0.00276440473608515706,-0.0101570403382134373,-0.0172475121826527258,-0.0165343201512493654,-0.00931960302139308791,0.00073417616675846187,0.00929934941213863414,0.0131453283062296974,0.0112731707859923432,0.00506321443924977882,-0.00253176517931916548,-0.00831843003360301786,-0.0101558790418719534,-0.00769642015987202603,-0.00235062523914749723,0.00344708944728741844,0.00730574832387147384,0.00783580755102513543,0.0051119684994518572,0.000517093861705444999,-0.0039261693051280697,-0.00641345052964303452,-0.00606328211432725743,-0.00319456823990781373,0.000883191249063828882,0.00445233239250387731,0.00606816164827945256,0.00508726773548571782,0.00183716385552990078,-0.00258703255522570045,-0.00678281492980600722,-0.00955661890632685321,-0.0103082400061370715,-0.00913841470123765223,-0.00677382848459612188,-0.00518065463057157134,0.000354588594501104026"
baseline_order100__firpm__w28.782__ap0.050,baseline_order100,firpm,100,101,0.05,28.7822341830567,1,1.79881885214964,48.8220824565051,"-0.00408118922935007435,-0.00607459663830098306,-0.00886137283313277561,-0.0107665920863059556,-0.0109463447594954355,-0.00894892221264245551,-0.00496710303972173074,0.000102892738998613866,0.00487724858683488867,0.00792242795394612273,0.00829377597260764696,0.00593177322424909368,0.0017669634275907487,-0.00255776287526690007,-0.00527202796480273368,-0.0051893490746111005,-0.00220567525597742354,0.00256365855786907983,0.00716806472847924484,0.00958808939187891923,0.00857839370805447803,0.00428141988043249325,-0.0017221627668918384,-0.00695523602678187972,-0.00904111233487040616,-0.00674223570171016227,-0.000618686796424302503,0.00702717489653708997,0.012969269818314276,0.0143655550594946561,0.0100422532282193697,0.00120563627383715646,-0.00879394654116724336,-0.0156546547742632478,-0.0158669240451188333,-0.00835267524796343662,0.00472380092497769275,0.0184030305409094812,0.0266260987931233629,0.0246396350424991084,0.0112358809044353636,-0.0100837510484671957,-0.031613079831122208,-0.0436176562035943474,-0.0375621498960959851,-0.00931612276254913108,0.038817103892257239,0.0980605725570740938,0.155275497915011801,0.196635682372612808,0.211712976647109835,0.196635682372612808,0.155275497915011801,0.0980605725570740938,0.038817103892257239,-0.00931612276254913108,-0.0375621498960959851,-0.0436176562035943474,-0.031613079831122208,-0.0100837510484671957,0.0112358809044353636,0.0246396350424991084,0.0266260987931233629,0.0184030305409094812,0.00472380092497769275,-0.00835267524796343662,-0.0158669240451188333,-0.0156546547742632478,-0.00879394654116724336,0.00120563627383715646,0.0100422532282193697,0.0143655550594946561,0.012969269818314276,0.00702717489653708997,-0.000618686796424302503,-0.00674223570171016227,-0.00904111233487040616,-0.00695523602678187972,-0.0017221627668918384,0.00428141988043249325,0.00857839370805447803,0.00958808939187891923,0.00716806472847924484,0.00256365855786907983,-0.00220567525597742354,-0.0051893490746111005,-0.00527202796480273368,-0.00255776287526690007,0.0017669634275907487,0.00593177322424909368,0.00829377597260764696,0.00792242795394612273,0.00487724858683488867,0.000102892738998613866,-0.00496710303972173074,-0.00894892221264245551,-0.0109463447594954355,-0.0107665920863059556,-0.00886137283313277561,-0.00607459663830098306,-0.00408118922935007435"
baseline_order100__firpm__w57.564__ap0.050,baseline_order100,firpm,100,101,0.05,57.5644683661134,2,2.52500159816648,51.806993213537,"-0.00245325794730037869,-0.00283084416413844665,-0.00319950329757217114,-0.00230056972232131922,0.000257400616673577459,0.00438716377859636308,0.00940238392165530443,0.014106200746178299,0.0171157621258455454,0.0173215697368715553,0.0143402844856884478,0.00876582092003189671,0.00209672633451562715,-0.00370300153160035665,-0.00686093102258973197,-0.00645934696489384921,-0.00283635881452511639,0.00245285574868590178,0.00717932752790486836,0.00926273605619591135,0.00762293442549395652,0.00268416690833029204,-0.00370315017148070127,-0.00891911649843808892,-0.0106292475133289675,-0.00779124628295914477,-0.00122391643736288616,0.00656881952975228028,0.0122995322949772719,0.0132302663395861067,0.0084055594541438735,-0.000737301065931754407,-0.0107066379706528443,-0.0172091844333314287,-0.0168946190331437825,-0.00891744547823130305,0.00435164006464568848,0.0178671672971072691,0.0256439901228617123,0.0231261884820789486,0.00934517237965898015,-0.0120283487077201406,-0.0332588731076119068,-0.044739124399489176,-0.038161133259138974,-0.00962290436411474513,0.0384423513978183681,0.0972859207185281794,0.153940962842115003,0.194824972549809294,0.20971648642581564,0.194824972549809294,0.153940962842115003,0.0972859207185281794,0.0384423513978183681,-0.00962290436411474513,-0.038161133259138974,-0.044739124399489176,-0.0332588731076119068,-0.0120283487077201406,0.00934517237965898015,0.0231261884820789486,0.0256439901228617123,0.0178671672971072691,0.00435164006464568848,-0.00891744547823130305,-0.0168946190331437825,-0.0172091844333314287,-0.0107066379706528443,-0.000737301065931754407,0.0084055594541438735,0.0132302663395861067,0.0122995322949772719,0.00656881952975228028,-0.00122391643736288616,-0.00779124628295914477,-0.0106292475133289675,-0.00891911649843808892,-0.00370315017148070127,0.00268416690833029204,0.00762293442549395652,0.00926273605619591135,0.00717932752790486836,0.00245285574868590178,-0.00283635881452511639,-0.00645934696489384921,-0.00686093102258973197,-0.00370300153160035665,0.00209672633451562715,0.00876582092003189671,0.0143402844856884478,0.0173215697368715553,0.0171157621258455454,0.014106200746178299,0.00940238392165530443,0.00438716377859636308,0.000257400616673577459,-0.00230056972232131922,-0.00319950329757217114,-0.00283084416413844665,-0.00245325794730037869"
baseline_order100__firpm__w115.129__ap0.050,baseline_order100,firpm,100,101,0.05,115.128936732227,4,3.36888688560478,55.5276542340779,"-0.00117693743186019677,-0.000385744365661888286,0.000853200305841490293,0.00345400156810400866,0.00740683225643982545,0.0122058588881490317,0.0168542105046956998,0.0200679207565038382,0.020654854774629295,0.0179535106500986891,0.0121789730730372664,0.00451187346059804453,-0.00314698968646301164,-0.00872846187232960424,-0.010680090252454727,-0.00855257109978358604,-0.00324529403165466513,0.00321807364373179194,0.00836175033741783091,0.010149082539862242,0.00777908749521195181,0.00206389848930613835,-0.00479324221355909193,-0.0100031728714904036,-0.0112732746199386939,-0.00778786407225778333,-0.000662097203471236659,0.00736596629067369935,0.0129291707513574019,0.0133913665696815936,0.00802491826261093368,-0.00148138751256104268,-0.0114745997529755468,-0.0176563215611277372,-0.0168263498858056137,-0.0083740949655652288,0.00511664396652828854,0.0185042065269756355,0.0258625738308149306,0.0228273046766365589,0.00866107455574489232,-0.0127920876070697753,-0.0337608721651623256,-0.0447532389473416295,-0.037677495193066346,-0.00885159131868512757,0.0391641879521864786,0.0976415178738169187,0.153776069777438434,0.194214007606234917,0.208931201563580166,0.194214007606234917,0.153776069777438434,0.0976415178738169187,0.0391641879521864786,-0.00885159131868512757,-0.037677495193066346,-0.0447532389473416295,-0.0337608721651623256,-0.0127920876070697753,0.00866107455574489232,0.0228273046766365589,0.0258625738308149306,0.0185042065269756355,0.00511664396652828854,-0.0083740949655652288,-0.0168263498858056137,-0.0176563215611277372,-0.0114745997529755468,-0.00148138751256104268,0.00802491826261093368,0.0133913665696815936,0.0129291707513574019,0.00736596629067369935,-0.000662097203471236659,-0.00778786407225778333,-0.0112732746199386939,-0.0100031728714904036,-0.00479324221355909193,0.00206389848930613835,0.00777908749521195181,0.010149082539862242,0.00836175033741783091,0.00321807364373179194,-0.00324529403165466513,-0.00855257109978358604,-0.010680090252454727,-0.00872846187232960424,-0.00314698968646301164,0.00451187346059804453,0.0121789730730372664,0.0179535106500986891,0.020654854774629295,0.0200679207565038382,0.0168542105046956998,0.0122058588881490317,0.00740683225643982545,0.00345400156810400866,0.000853200305841490293,-0.000385744365661888286,-0.00117693743186019677"
baseline_order100__firpm__w230.258__ap0.050,baseline_order100,firpm,100,101,0.05,230.257873464454,8,4.2096555027332,59.6989619423805,"-4.37132770655302677e-05,0.0017546604967607043,0.00419392214087642434,0.00811024082362724226,0.0130522133653439027,0.0181965594191810902,0.0223367098022487914,0.024172463737923814,0.0227252915482023497,0.0177446387914855855,0.00994831966127160058,0.000969825049080232288,-0.00702478988946622727,-0.0119685925765997507,-0.0125805478428698755,-0.00886520901908925338,-0.00221200559251726742,0.00498837452939014745,0.0101222996700690709,0.0112747618182533257,0.00796421200872068739,0.00139136040069744974,-0.00593032512399774801,-0.0110806564469652681,-0.0118535179697366131,-0.00768310262596021056,1.66804783349194672e-05,0.00827650719309411254,0.0136619259079416785,0.0136432921528608954,0.00772184024133064188,-0.00216944867995974653,-0.0122180031647067082,-0.0181194904656813531,-0.0168131416180464024,-0.00790775289735634254,0.00581118769384200706,0.0191047617838099211,0.0260981173138386986,0.0225936233293095312,0.00806608664425398879,-0.0134799473091826352,-0.0342356724507039273,-0.0448060967483207423,-0.0372906044732334574,-0.00820271250068265768,0.0397806626759989873,0.0979479635621911676,0.153633397601886129,0.193685192941181972,0.2082509568498008,0.193685192941181972,0.153633397601886129,0.0979479635621911676,0.0397806626759989873,-0.00820271250068265768,-0.0372906044732334574,-0.0448060967483207423,-0.0342356724507039273,-0.0134799473091826352,0.00806608664425398879,0.0225936233293095312,0.0260981173138386986,0.0191047617838099211,0.00581118769384200706,-0.00790775289735634254,-0.0168131416180464024,-0.0181194904656813531,-0.0122180031647067082,-0.00216944867995974653,0.00772184024133064188,0.0136432921528608954,0.0136619259079416785,0.00827650719309411254,1.66804783349194672e-05,-0.00768310262596021056,-0.0118535179697366131,-0.0110806564469652681,-0.00593032512399774801,0.00139136040069744974,0.00796421200872068739,0.0112747618182533257,0.0101222996700690709,0.00498837452939014745,-0.00221200559251726742,-0.00886520901908925338,-0.0125805478428698755,-0.0119685925765997507,-0.00702478988946622727,0.000969825049080232288,0.00994831966127160058,0.0177446387914855855,0.0227252915482023497,0.024172463737923814,0.0223367098022487914,0.0181965594191810902,0.0130522133653439027,0.00811024082362724226,0.00419392214087642434,0.0017546604967607043,-4.37132770655302677e-05"
baseline_order100__firpm__w460.516__ap0.050,baseline_order100,firpm,100,101,0.05,460.515746928907,16,5.11815253984978,64.0357802343342,"0.0012539045142085706,0.0031942671399130154,0.00643751581184039048,0.0107563375916587389,0.0155418468432895335,0.0197537080290072914,0.0221125040467129476,0.0214529588497844488,0.0171391089418317655,0.00940487442123727653,-0.000523260540370160186,-0.0106218342465033422,-0.0185674540905957537,-0.0224220274426314807,-0.0212876765915641503,-0.0156919016953609783,-0.00753133110190427196,0.000460890246223041779,0.00558588580456178662,0.00610763046342318542,0.00190584176730137708,-0.00541330880284176478,-0.0130332583995928716,-0.0179270789834896881,-0.0180022344804025361,-0.012962221908786261,-0.00453211552432543439,0.00409076874475698248,0.00940773233737733118,0.0090019628665993813,0.00260543714868547533,-0.00760150458183307415,-0.0176479817297513081,-0.0232164591139001099,-0.0213769963434881638,-0.0119498577398886256,0.00208284499926719019,0.0153853100198830563,0.0221183786132197191,0.0182375913800478726,0.00341208029454406238,-0.018202243813103678,-0.0387533226709959322,-0.0489298918826567633,-0.0409978110158598294,-0.011648219022462979,0.0363366079487628182,0.0942552097750908591,0.149563329755519198,0.189285233452885615,0.203721261948107829,0.189285233452885615,0.149563329755519198,0.0942552097750908591,0.0363366079487628182,-0.011648219022462979,-0.0409978110158598294,-0.0489298918826567633,-0.0387533226709959322,-0.018202243813103678,0.00341208029454406238,0.0182375913800478726,0.0221183786132197191,0.0153853100198830563,0.00208284499926719019,-0.0119498577398886256,-0.0213769963434881638,-0.0232164591139001099,-0.0176479817297513081,-0.00760150458183307415,0.00260543714868547533,0.0090019628665993813,0.00940773233737733118,0.00409076874475698248,-0.00453211552432543439,-0.012962221908786261,-0.0180022344804025361,-0.0179270789834896881,-0.0130332583995928716,-0.00541330880284176478,0.00190584176730137708,0.00610763046342318542,0.00558588580456178662,0.000460890246223041779,-0.00753133110190427196,-0.0156919016953609783,-0.0212876765915641503,-0.0224220274426314807,-0.0185674540905957537,-0.0106218342465033422,-0.000523260540370160186,0.00940487442123727653,0.0171391089418317655,0.0214529588497844488,0.0221125040467129476,0.0197537080290072914,0.0155418468432895335,0.0107563375916587389,0.00643751581184039048,0.0031942671399130154,0.0012539045142085706"
baseline_order100__firpm__w14.391__ap0.100,baseline_order100,firpm,100,101,0.1,14.3909978740548,0.25,1.41864254575004,44.928641518196,"0.000354630115485695156,-0.0051806192869710806,-0.00677380365979329043,-0.00913838515260184669,-0.0103082177120021063,-0.00955660887374618594,-0.00678281825100938117,-0.00258704542099482846,0.00183714651383414256,0.00508725258468234898,0.00606815369209694894,0.00445233258676439904,0.000883198353197759095,-0.00319455839897204216,-0.00606327480927287485,-0.00641344833650937286,-0.00392617296451360735,0.000517085681339071669,0.00511195953495732509,0.0078358020921038881,0.00730574928771676822,0.00344709597575993797,-0.00235061687531475973,-0.00769641325382010907,-0.0101558765299211463,-0.00831843335422326711,-0.00253177270100420938,0.00506320607367380555,0.0112731655324536037,0.0131453289297064225,0.00929935567876569343,0.000734185553087250849,-0.00931959486484964898,-0.0165343168817637422,-0.0172475147888110532,-0.0101570484217686705,0.00276439387932052652,0.0166345197101985011,0.0253162468794142122,0.0238629605510087793,0.0108378806461035485,-0.0104214766777930533,-0.0322388214868349482,-0.0447541392578313449,-0.0392071354305520009,-0.0112468797819199745,0.0369426723402532312,0.0965677892489760076,0.154317436021196186,0.196130528098159423,0.211389883560001629,0.196130528098159423,0.154317436021196186,0.0965677892489760076,0.0369426723402532312,-0.0112468797819199745,-0.0392071354305520009,-0.0447541392578313449,-0.0322388214868349482,-0.0104214766777930533,0.0108378806461035485,0.0238629605510087793,0.0253162468794142122,0.0166345197101985011,0.00276439387932052652,-0.0101570484217686705,-0.0172475147888110532,-0.0165343168817637422,-0.00931959486484964898,0.000734185553087250849,0.00929935567876569343,0.0131453289297064225,0.0112731655324536037,0.00506320607367380555,-0.00253177270100420938,-0.00831843335422326711,-0.0101558765299211463,-0.00769641325382010907,-0.00235061687531475973,0.00344709597575993797,0.00730574928771676822,0.0078358020921038881,0.00511195953495732509,0.000517085681339071669,-0.00392617296451360735,-0.00641344833650937286,-0.00606327480927287485,-0.00319455839897204216,0.000883198353197759095,0.00445233258676439904,0.00606815369209694894,0.00508725258468234898,0.00183714651383414256,-0.00258704542099482846,-0.00678281825100938117,-0.00955660887374618594,-0.0103082177120021063,-0.00913838515260184669,-0.00677380365979329043,-0.0051806192869710806,0.000354630115485695156"
baseline_order100__firpm__w28.782__ap0.100,baseline_order100,firpm,100,101,0.1,28.7819957481096,0.5,1.79881162055781,48.8220486215152,"-0.00408121218428883145,-0.00607464462284589262,-0.00886145985432187748,-0.0107667280251785274,-0.0109465344797321611,-0.00894916364531026486,-0.00496738693009927089,0.000102581244942034577,0.00487692684026865171,0.00792211188903647889,0.00829347682414140891,0.00593149578462178351,0.00176670610318065829,-0.00255800616843970038,-0.00527226448388765177,-0.00518958441116545901,-0.00220591143979780805,0.00256342348840049193,0.00716783517834611132,0.00958787010673357171,0.00857818757681724602,0.00428122662991792507,-0.00172234642865441343,-0.0069554149125630009,-0.00904129069976783786,-0.00674241556819801541,-0.000618867218050990725,0.00702699716822388805,0.0129690986694147286,0.0143653933040983426,0.0100421013403512727,0.00120549210969442635,-0.00879408662996230758,-0.0156547943530961492,-0.0158670649473315641,-0.00835281672064253078,0.0047236617538401705,0.0184028971927558994,0.0266259735985820284,0.0246395178492593257,0.0112357687485298788,-0.0100838629259226015,-0.0316131961537758702,-0.0436177798583931367,-0.0375622807142546311,-0.00931625758429428102,0.0388169697799862004,0.0980604434707909312,0.155275375927928255,0.196635566405466977,0.211712863028641035,0.196635566405466977,0.155275375927928255,0.0980604434707909312,0.0388169697799862004,-0.00931625758429428102,-0.0375622807142546311,-0.0436177798583931367,-0.0316131961537758702,-0.0100838629259226015,0.0112357687485298788,0.0246395178492593257,0.0266259735985820284,0.0184028971927558994,0.0047236617538401705,-0.00835281672064253078,-0.0158670649473315641,-0.0156547943530961492,-0.00879408662996230758,0.00120549210969442635,0.0100421013403512727,0.0143653933040983426,0.0129690986694147286,0.00702699716822388805,-0.000618867218050990725,-0.00674241556819801541,-0.00904129069976783786,-0.0069554149125630009,-0.00172234642865441343,0.00428122662991792507,0.00857818757681724602,0.00958787010673357171,0.00716783517834611132,0.00256342348840049193,-0.00220591143979780805,-0.00518958441116545901,-0.00527226448388765177,-0.00255800616843970038,0.00176670610318065829,0.00593149578462178351,0.00829347682414140891,0.00792211188903647889,0.00487692684026865171,0.000102581244942034577,-0.00496738693009927089,-0.00894916364531026486,-0.0109465344797321611,-0.0107667280251785274,-0.00886145985432187748,-0.00607464462284589262,-0.00408121218428883145"
baseline_order100__firpm__w57.564__ap0.100,baseline_order100,firpm,100,101,0.1,57.5639914962191,1,2.52499370358962,51.8069519242559,"-0.00245327486859237649,-0.00283087694615469015,-0.00319955863424212575,-0.00230064945728386148,0.000257299924379330138,0.00438705142084223031,0.00940227384355873767,0.0141061086330672471,0.0171157016657579319,0.0173215492443379339,0.0143403045310444167,0.00876587382915999629,0.00209679832081808779,-0.00370292653812134354,-0.00686086725014661489,-0.00645930331443625352,-0.00283633703898752585,0.00245286025290283091,0.00717932317685472318,0.0092627317740677801,0.00762293637559306996,0.00268417687221998887,-0.00370313475402401929,-0.00891910065408568244,-0.010629236074455135,-0.00779124190709699471,-0.00122391852894212605,0.00656881439024281991,0.0122995285789414474,0.0132302674623418371,0.0084055662820350114,-0.000737290557950420061,-0.0107066276924445685,-0.017209178317318722,-0.0168946192024286013,-0.00891745129792178605,0.00435163166908508845,0.017867160441486063,0.0256439882351015731,0.023126192694001721,0.009345180911011804,-0.012028339640933472,-0.0332588676962861998,-0.0447391253409233358,-0.0381611405116312197,-0.00962291518300836118,0.0384423413116103813,0.0972859152920678982,0.153940963954964039,0.19482497926413439,0.209716495341243037,0.19482497926413439,0.153940963954964039,0.0972859152920678982,0.0384423413116103813,-0.00962291518300836118,-0.0381611405116312197,-0.0447391253409233358,-0.0332588676962861998,-0.012028339640933472,0.009345180911011804,0.023126192694001721,0.0256439882351015731,0.017867160441486063,0.00435163166908508845,-0.00891745129792178605,-0.0168946192024286013,-0.017209178317318722,-0.0107066276924445685,-0.000737290557950420061,0.0084055662820350114,0.0132302674623418371,0.0122995285789414474,0.00656881439024281991,-0.00122391852894212605,-0.00779124190709699471,-0.010629236074455135,-0.00891910065408568244,-0.00370313475402401929,0.00268417687221998887,0.00762293637559306996,0.0092627317740677801,0.00717932317685472318,0.00245286025290283091,-0.00283633703898752585,-0.00645930331443625352,-0.00686086725014661489,-0.00370292653812134354,0.00209679832081808779,0.00876587382915999629,0.0143403045310444167,0.0173215492443379339,0.0171157016657579319,0.0141061086330672471,0.00940227384355873767,0.00438705142084223031,0.000257299924379330138,-0.00230064945728386148,-0.00319955863424212575,-0.00283087694615469015,-0.00245327486859237649"
baseline_order100__firpm__w115.128__ap0.100,baseline_order100,firpm,100,101,0.1,115.127982992438,2,3.36887714839495,55.5276067365009,"-0.00117695132120073905,-0.000385770865252366244,0.000853157385823481999,0.00345394149751163896,0.00740675878605796725,0.0122057801485138499,0.0168541375745580937,0.0200678650969370424,0.0206548253484582153,0.017953511311235789,0.012179001109056356,0.00451192014076821826,-0.00314693680765259446,-0.0087284156184016231,-0.0106800603300518104,-0.00855256159626130615,-0.00324530263077749126,0.00321805418850868276,0.00836172919111015898,0.0101490677297870827,0.0077790833975849398,0.00206390450789365083,-0.00479323052622435044,-0.0100031615866607321,-0.0112732691284322777,-0.00778786664848043781,-0.000662106439123774215,0.00736595461829119696,0.0129291616748819244,0.0133913637208236697,0.00802492247057363071,-0.00148137855370250311,-0.0114745902587865094,-0.0176563157841900763,-0.0168263502517041544,-0.0083741010965315138,0.00511663498129884698,0.0185041988738329499,0.0258625710284281704,0.0228273079476364361,0.00866108251250421839,-0.0127920783595004747,-0.0337608656153883593,-0.044753237755947535,-0.037677499572891418,-0.00885159909827310486,0.0391641805285537423,0.0976415144155760029,0.153776072117302709,0.194214014974781357,0.208931210881270951,0.194214014974781357,0.153776072117302709,0.0976415144155760029,0.0391641805285537423,-0.00885159909827310486,-0.037677499572891418,-0.044753237755947535,-0.0337608656153883593,-0.0127920783595004747,0.00866108251250421839,0.0228273079476364361,0.0258625710284281704,0.0185041988738329499,0.00511663498129884698,-0.0083741010965315138,-0.0168263502517041544,-0.0176563157841900763,-0.0114745902587865094,-0.00148137855370250311,0.00802492247057363071,0.0133913637208236697,0.0129291616748819244,0.00736595461829119696,-0.000662106439123774215,-0.00778786664848043781,-0.0112732691284322777,-0.0100031615866607321,-0.00479323052622435044,0.00206390450789365083,0.0077790833975849398,0.0101490677297870827,0.00836172919111015898,0.00321805418850868276,-0.00324530263077749126,-0.00855256159626130615,-0.0106800603300518104,-0.0087284156184016231,-0.00314693680765259446,0.00451192014076821826,0.012179001109056356,0.017953511311235789,0.0206548253484582153,0.0200678650969370424,0.0168541375745580937,0.0122057801485138499,0.00740675878605796725,0.00345394149751163896,0.000853157385823481999,-0.000385770865252366244,-0.00117695132120073905"
baseline_order100__firpm__w230.256__ap0.100,baseline_order100,firpm,100,101,0.1,230.255965984877,4,4.20964593083087,59.6989142302941,"-4.37269785989364648e-05,0.00175463573041168214,0.00419388547147075443,0.00811018946918547722,0.0130521520140581913,0.0181964951426629683,0.0223366517046684684,0.0241724211304194248,0.0227252711353570294,0.017744642494181135,0.00994834411421185137,0.000969862091923900395,-0.00702475081108336775,-0.0119685615814989783,-0.0125805321132454705,-0.0088652104375846752,-0.00221202068103956229,0.00498835299252734041,0.0101222800350536605,0.0112747507502795122,0.0079642124368508229,0.00139137074230794629,-0.00593030985979349067,-0.011080642327754027,-0.0118535099708707587,-0.00768310317128076316,1.66728542608323426e-05,0.00827649642993344946,0.0136619165437093879,0.0136432878408620385,0.00772184209491674246,-0.00216944241664592712,-0.012217995991725664,-0.018119485811887083,-0.0168131415073200438,-0.00790775719118553058,0.00581118159977214548,0.0191047570846496033,0.0260981166945974917,0.0225936277090544001,0.00806609430420134055,-0.0134799392999107506,-0.0342356676007887634,-0.0448060973242484853,-0.0372906102798482506,-0.00820272125687388637,0.0397806543636240323,0.0979479590327153871,0.153633398436858332,0.193685198254618607,0.20825096393187506,0.193685198254618607,0.153633398436858332,0.0979479590327153871,0.0397806543636240323,-0.00820272125687388637,-0.0372906102798482506,-0.0448060973242484853,-0.0342356676007887634,-0.0134799392999107506,0.00806609430420134055,0.0225936277090544001,0.0260981166945974917,0.0191047570846496033,0.00581118159977214548,-0.00790775719118553058,-0.0168131415073200438,-0.018119485811887083,-0.012217995991725664,-0.00216944241664592712,0.00772184209491674246,0.0136432878408620385,0.0136619165437093879,0.00827649642993344946,1.66728542608323426e-05,-0.00768310317128076316,-0.0118535099708707587,-0.011080642327754027,-0.00593030985979349067,0.00139137074230794629,0.0079642124368508229,0.0112747507502795122,0.0101222800350536605,0.00498835299252734041,-0.00221202068103956229,-0.0088652104375846752,-0.0125805321132454705,-0.0119685615814989783,-0.00702475081108336775,0.000969862091923900395,0.00994834411421185137,0.017744642494181135,0.0227252711353570294,0.0241724211304194248,0.0223366517046684684,0.0181964951426629683,0.0130521520140581913,0.00811018946918547722,0.00419388547147075443,0.00175463573041168214,-4.37269785989364648e-05"
baseline_order100__firpm__w460.512__ap0.100,baseline_order100,firpm,100,101,0.1,460.511931969753,8,5.11813713422799,64.0357383111153,"0.00125391266257326539,0.00319429207786948392,0.00643757337142687389,0.0107564482146423682,0.0155420334851555444,0.0197539923216558527,0.022112901492267991,0.0214534741585387552,0.0171397330019863944,0.00940558382173723069,-0.000522500842875766973,-0.0106210653994200446,-0.0185667162028957458,-0.0224213525352548494,-0.0212870834874872884,-0.0156913941405417146,-0.0075308995735057626,0.000461263652234863454,0.005586221049346622,0.00610794365538248289,0.00190614132106634829,-0.00541302292881809359,-0.0130329925397081065,-0.0179268417328050031,-0.0180020324062110208,-0.0129620565527955624,-0.00453198262770169655,0.00409087768624547422,0.00940782701724253954,0.00900205091072703995,0.00260552189678528705,-0.00760142442528946756,-0.0176479106224568458,-0.0232164021150333445,-0.0213769565271871576,-0.0119498346316581697,0.00208285540180837498,0.0153853137425470667,0.0221183814535575382,0.0182375969229848084,0.00341208895055297636,-0.0182022343928460242,-0.0387533160681635194,-0.0489298910219865407,-0.0409978167220880693,-0.0116482296455301514,0.0363365957268902834,0.0942551993989858561,0.149563323251872882,0.189285230619189754,0.203721260601679333,0.189285230619189754,0.149563323251872882,0.0942551993989858561,0.0363365957268902834,-0.0116482296455301514,-0.0409978167220880693,-0.0489298910219865407,-0.0387533160681635194,-0.0182022343928460242,0.00341208895055297636,0.0182375969229848084,0.0221183814535575382,0.0153853137425470667,0.00208285540180837498,-0.0119498346316581697,-0.0213769565271871576,-0.0232164021150333445,-0.0176479106224568458,-0.00760142442528946756,0.00260552189678528705,0.00900205091072703995,0.00940782701724253954,0.00409087768624547422,-0.00453198262770169655,-0.0129620565527955624,-0.0180020324062110208,-0.0179268417328050031,-0.0130329925397081065,-0.00541302292881809359,0.00190614132106634829,0.00610794365538248289,0.005586221049346622,0.000461263652234863454,-0.0075308995735057626,-0.0156913941405417146,-0.0212870834874872884,-0.0224213525352548494,-0.0185667162028957458,-0.0106210653994200446,-0.000522500842875766973,0.00940558382173723069,0.0171397330019863944,0.0214534741585387552,0.022112901492267991,0.0197539923216558527,0.0155420334851555444,0.0107564482146423682,0.00643757337142687389,0.00319429207786948392,0.00125391266257326539"
